"subjID"	"trial"	"opt1_h_prob"	"opt2_h_prob"	"opt1_h_val"	"opt1_l_val"	"opt2_h_val"	"opt2_l_val"	"choice"
1	1	0.9	0.5	-14	-30	30	-43	2
1	2	0.3	0.3	18	-15	46	36	2
1	3	0.5	0.5	-26	-44	10	-5	2
1	4	0.2	0.4	-8	-43	26	17	2
1	5	0.3	0.3	30	-37	44	24	2
1	6	0.6	0.2	46	-26	10	-14	1
1	7	0.8	0.9	48	-49	-12	-30	1
1	8	0.8	0.1	-8	-16	48	0	2
1	9	0.2	0.5	27	-30	28	27	2
1	10	0.1	0.3	-3	-48	2	-34	2
1	11	0.6	0.4	-30	-39	49	-31	2
1	12	0.1	0.9	29	-4	8	7	2
1	13	0.9	0.9	12	-21	27	-13	1
1	14	0.9	0.1	-1	-39	43	11	2
1	15	0.5	0.2	22	-18	22	-12	2
1	16	0.5	0.2	-9	-50	-4	-12	2
1	17	0.4	0.2	-22	-45	-12	-49	2
1	18	0.2	0.7	39	-4	19	-36	2
1	19	0.8	0.3	32	-24	3	-25	1
1	20	0.7	0.6	41	0	38	31	2
1	21	0.7	0.4	28	5	43	-4	2
1	22	0.5	0.3	28	-24	33	-22	1
1	23	0.6	0.8	23	-15	-7	-35	1
1	24	0.1	0.2	25	-42	-31	-35	1
1	25	0.1	0.5	49	-34	3	-9	2
1	26	0.6	0.5	38	-16	-42	-49	1
1	27	0.6	0.5	6	-46	21	-3	2
1	28	0.5	0.9	-18	-50	32	-42	2
1	29	0.8	0.3	9	4	42	13	2
1	30	0.3	0.8	41	34	-23	-25	1
1	31	0.1	0.6	38	30	21	-7	1
1	32	0.4	0.3	21	-32	-3	-40	1
1	33	0.8	0.6	43	4	33	-40	1
1	34	0.2	0.4	2	-4	5	-30	1
1	35	0.5	0.9	-11	-37	6	-28	2
1	36	0.8	0.8	31	-4	31	9	2
1	37	0.2	0.6	33	-26	-4	-44	2
1	38	0.8	0.3	43	14	49	9	2
1	39	0.8	0.4	33	20	30	18	2
1	40	0.8	0.2	19	-35	-5	-41	1
1	41	0.4	0.8	7	-9	16	-11	2
1	42	0.1	0.3	-8	-41	34	-35	2
1	43	0.8	0.5	47	15	8	7	1
1	44	0.4	0.9	-1	-8	22	-6	2
1	45	0.8	0.8	16	6	34	-43	1
1	46	0.5	0.4	22	-44	1	-29	1
1	47	0.5	0.4	17	-22	-15	-20	1
1	48	0.6	0.7	14	-33	-3	-14	1
1	49	0.3	0.6	19	10	-34	-45	1
1	50	0.4	0.6	30	18	35	28	2
1	51	0.3	0.4	-4	-5	43	-13	2
1	52	0.7	0.4	-7	-43	11	0	2
1	53	0.4	0.7	24	5	14	-47	1
1	54	0.3	0.7	42	14	22	13	1
1	55	0.7	0.9	44	8	32	-11	1
1	56	0.9	0.4	47	36	-36	-41	1
1	57	0.3	0.9	7	-47	15	-26	2
1	58	0.9	0.8	4	-39	47	0	2
1	59	0.6	0.8	48	-8	28	-46	1
1	60	0.6	0.5	47	35	38	12	2
1	61	0.9	0.9	35	9	11	-37	1
1	62	0.4	0.1	30	-16	-29	-40	1
1	63	0.6	0.7	17	-31	-32	-39	1
1	64	0.6	0.1	40	32	31	11	1
1	65	0.1	0.1	-20	-38	49	-17	2
1	66	0.7	0.6	36	-2	-42	-48	1
1	67	0.5	0.5	9	-39	-1	-18	2
1	68	0.6	0.5	46	-48	49	33	2
1	69	0.6	0.7	-34	-46	49	38	2
1	70	0.8	0.5	47	39	-5	-44	1
1	71	0.5	0.9	41	-32	44	-35	2
1	72	0.8	0.4	50	-41	38	6	1
1	73	0.8	0.5	14	-24	-30	-43	1
1	74	0.7	0.7	27	-32	17	-3	2
1	75	0.6	0.1	48	-4	8	4	1
1	76	0.6	0.3	10	-10	-22	-30	1
1	77	0.3	0.7	3	-45	0	-39	2
1	78	0.5	0.4	41	33	45	12	1
1	79	0.5	0.1	39	-32	-34	-41	1
1	80	0.9	0.5	40	33	10	8	1
1	81	0.2	0.3	-2	-17	-4	-35	1
1	82	0.6	0.2	25	-13	45	5	1
1	83	0.2	0.1	10	-7	19	-23	1
1	84	0.9	0.1	49	-21	29	25	2
1	85	0.8	0.1	45	19	39	-44	1
1	86	0.7	0.3	48	40	48	1	1
1	87	0.8	0.7	37	-37	41	28	2
1	88	0.3	0.8	26	-20	35	30	2
1	89	0.2	0.2	0	-17	14	-36	2
1	90	0.8	0.2	20	-19	-4	-29	1
1	91	0.5	0.7	-7	-11	-16	-29	2
1	92	0.8	0.4	48	-27	-1	-39	1
1	93	0.3	0.9	15	-33	18	-14	2
1	94	0.6	0.2	-12	-21	-34	-44	1
1	95	0.5	0.7	26	1	10	-6	1
1	96	0.9	0.1	35	-48	35	-9	1
1	97	0.5	0.6	32	1	-4	-5	1
1	98	0.7	0.7	28	2	42	-19	2
1	99	0.6	0.6	20	3	42	7	2
1	100	0.2	0.4	36	-25	16	-28	2
1	101	0.1	0.4	12	-7	-10	-48	1
1	102	0.7	0.2	-1	-24	47	-4	2
1	103	0.3	0.7	-24	-35	33	27	2
1	104	0.9	0.8	19	-47	23	-43	1
1	105	0.1	0.7	38	-24	15	2	2
1	106	0.1	0.4	48	-9	34	-40	1
1	107	0.7	0.1	32	-35	23	-14	1
1	108	0.1	0.4	23	4	-15	-34	1
1	109	0.2	0.8	-9	-13	38	-42	2
1	110	0.9	0.3	-35	-44	15	-44	1
1	111	0.4	0.2	4	-8	18	-39	1
1	112	0.7	0.4	22	17	42	-14	1
1	113	0.5	0.5	25	-16	-4	-19	2
1	114	0.8	0.2	41	-24	0	-22	1
1	115	0.4	0.3	27	22	23	7	1
1	116	0.1	0.3	17	5	15	-16	1
1	117	0.8	0.5	-7	-41	49	16	2
1	118	0.2	0.7	35	3	-6	-36	1
1	119	0.3	0.6	19	-15	16	14	2
1	120	0.7	0.3	34	14	22	-27	1
1	121	0.7	0.3	39	-42	45	43	2
1	122	0.2	0.5	47	-32	41	-39	2
1	123	0.8	0.1	20	-4	43	29	2
1	124	0.4	0.3	42	-3	8	-26	1
1	125	0.6	0.9	24	2	-27	-44	1
1	126	0.7	0.4	39	-44	47	16	2
1	127	0.2	0.9	-2	-14	0	-24	2
1	128	0.9	0.7	-24	-50	45	27	2
1	129	0.9	0.4	-22	-35	26	-21	2
1	130	0.2	0.1	16	11	26	-49	1
1	131	0.2	0.6	1	-21	32	16	2
1	132	0.1	0.7	-25	-42	50	-8	2
1	133	0.7	0.1	-2	-37	-7	-10	1
1	134	0.9	0.6	-24	-26	-7	-25	1
1	135	0.8	0.1	33	-35	43	-47	1
1	136	0.7	0.8	24	-23	49	15	2
1	137	0.8	0.8	-15	-20	26	16	2
1	138	0.3	0.4	40	-18	14	-47	2
1	139	0.1	0.3	23	-17	49	-36	2
1	140	0.1	0.2	14	-41	17	-36	2
1	141	0.4	0.7	34	3	-20	-44	1
1	142	0.5	0.7	-48	-50	38	12	2
1	143	0.1	0.2	-20	-47	-20	-45	2
1	144	0.4	0.3	41	-16	13	-27	1
1	145	0.8	0.4	40	20	29	-12	1
1	146	0.6	0.1	-9	-15	-6	-46	1
1	147	0.1	0.1	16	-41	48	-24	2
1	148	0.9	0.7	7	-50	11	-33	1
1	149	0.3	0.1	39	-34	7	-19	1
1	150	0.1	0.5	17	-35	-33	-35	1
1	151	0.1	0.1	46	38	10	-13	1
1	152	0.2	0.2	35	-30	7	3	2
1	153	0.7	0.3	-44	-48	6	5	2
1	154	0.6	0.8	-33	-36	5	-7	2
1	155	0.2	0.4	-42	-45	0	-22	2
1	156	0.9	0.1	-15	-49	-6	-33	1
1	157	0.4	0.2	46	3	-26	-33	1
1	158	0.5	0.9	7	-21	7	-9	2
1	159	0.6	0.9	45	3	37	25	2
1	160	0.3	0.1	9	1	25	-41	1
1	161	0.4	0.6	-3	-10	22	15	2
1	162	0.5	0.1	39	-22	4	-28	1
1	163	0.2	0.7	4	-35	-12	-14	2
1	164	0.4	0.4	17	0	24	-49	1
1	165	0.3	0.7	28	6	19	-18	1
1	166	0.9	0.7	26	-28	28	-47	1
1	167	0.9	0.5	37	-34	16	10	1
1	168	0.8	0.2	0	-47	45	43	2
1	169	0.1	0.3	44	39	-6	-47	1
1	170	0.7	0.6	-24	-33	35	1	2
1	171	0.5	0.1	24	5	23	16	2
1	172	0.2	0.4	-8	-41	22	-46	2
1	173	0.3	0.7	16	4	36	35	2
1	174	0.6	0.1	-11	-26	45	44	2
1	175	0.7	0.7	-8	-49	48	-48	2
1	176	0.2	0.4	36	1	3	-29	1
1	177	0.6	0.4	13	-16	18	-17	1
1	178	0.9	0.1	43	26	-15	-41	1
1	179	0.6	0.7	12	-35	43	29	2
1	180	0.9	0.7	36	1	23	-23	1
1	181	0.3	0.4	4	-10	28	-26	1
1	182	0.8	0.1	-19	-46	33	-30	2
1	183	0.2	0.3	43	-31	50	3	2
1	184	0.2	0.5	42	-6	1	-40	2
1	185	0.8	0.5	24	-31	43	33	2
1	186	0.2	0.1	-20	-47	26	-25	2
1	187	0.5	0.3	4	-19	50	-48	1
1	188	0.7	0.7	31	30	-16	-26	1
1	189	0.2	0.2	42	-7	13	-13	2
1	190	0.2	0.8	47	-37	25	-23	2
1	191	0.6	0.6	46	-4	19	-1	1
1	192	0.2	0.5	22	16	31	8	1
1	193	0.5	0.8	11	2	-26	-47	1
1	194	0.4	0.6	-3	-27	4	-47	1
1	195	0.7	0.3	3	-30	46	4	2
1	196	0.5	0.2	40	14	50	15	2
1	197	0.6	0.6	26	-3	23	-42	1
1	198	0.2	0.4	17	-5	48	38	2
1	199	0.7	0.1	-41	-50	33	5	2
1	200	0.3	0.3	36	-3	38	-16	1
1	201	0.8	0.4	17	-37	7	-11	1
1	202	0.8	0.4	44	-15	-8	-47	1
1	203	0.1	0.9	37	10	34	21	2
1	204	0.8	0.5	-18	-29	5	-16	2
1	205	0.8	0.7	48	-25	-5	-8	1
1	206	0.6	0.1	36	-25	36	-37	1
1	207	0.6	0.6	29	19	8	-19	1
1	208	0.8	0.9	16	-26	38	-33	2
1	209	0.4	0.4	9	1	42	8	2
1	210	0.6	0.3	36	-19	49	43	2
1	211	0.3	0.9	23	12	-9	-24	1
1	212	0.5	0.2	-2	-34	-9	-32	1
1	213	0.9	0.2	-3	-44	42	-3	2
1	214	0.6	0.9	41	-47	15	-34	1
1	215	0.1	0.5	38	33	-23	-48	1
1	216	0.9	0.7	15	-5	23	-19	2
1	217	0.5	0.7	34	-29	23	19	2
1	218	0.4	0.1	44	-25	3	-27	1
1	219	0.4	0.9	26	25	-27	-37	1
1	220	0.6	0.4	32	-9	31	-18	1
1	221	0.1	0.5	-22	-29	32	-10	2
1	222	0.1	0.3	26	10	31	-47	1
1	223	0.6	0.5	42	-40	42	-41	1
1	224	0.7	0.9	47	-34	40	-28	1
1	225	0.8	0.6	-12	-36	20	-16	2
1	226	0.9	0.6	25	-31	27	10	1
1	227	0.5	0.6	21	-29	-4	-8	1
1	228	0.5	0.8	-2	-19	47	41	2
1	229	0.4	0.7	37	-14	-5	-8	1
1	230	0.1	0.4	4	-17	-4	-27	2
1	231	0.5	0.1	0	-49	40	12	2
1	232	0.2	0.1	-9	-18	17	-49	1
1	233	0.3	0.3	43	-47	30	-16	2
1	234	0.8	0.7	39	-3	43	-21	1
1	235	0.8	0.2	-28	-33	9	-25	2
1	236	0.5	0.2	24	-50	50	5	2
1	237	0.2	0.5	33	0	44	-18	2
1	238	0.9	0.8	34	1	38	36	2
1	239	0.2	0.7	-22	-36	15	-6	2
1	240	0.6	0.3	42	16	31	-29	1
1	241	0.7	0.9	9	-11	49	30	2
1	242	0.6	0.6	43	-22	32	-22	2
1	243	0.3	0.4	38	37	41	-39	1
1	244	0.9	0.2	32	25	42	-33	1
1	245	0.8	0.3	32	30	48	-30	1
1	246	0.3	0.7	-4	-30	10	8	2
1	247	0.7	0.7	-12	-14	-34	-50	1
1	248	0.9	0.8	42	38	31	-40	1
1	249	0.4	0.2	4	-43	-8	-11	2
1	250	0.1	0.5	13	-16	27	10	2
1	251	0.5	0.4	7	-22	5	-46	1
1	252	0.3	0.4	45	-31	32	4	2
1	253	0.8	0.7	38	-26	45	-27	1
1	254	0.9	0.5	-4	-10	48	-7	2
1	255	0.6	0.9	20	-43	38	18	2
1	256	0.9	0.2	-1	-6	34	-44	1
1	257	0.7	0.2	37	2	49	-2	1
1	258	0.2	0.6	14	-43	21	-40	2
1	259	0.5	0.3	22	-16	42	39	2
1	260	0.7	0.1	-15	-45	16	-4	2
1	261	0.9	0.6	2	-14	50	-25	2
1	262	0.1	0.1	-33	-38	9	0	2
1	263	0.2	0.2	-13	-28	26	-28	2
1	264	0.9	0.2	35	-38	37	6	1
1	265	0.7	0.5	-2	-50	39	-27	2
1	266	0.8	0.3	42	-47	40	-20	1
1	267	0.4	0.1	9	-9	-10	-46	1
1	268	0.4	0.9	-27	-28	45	12	2
1	269	0.2	0.8	23	21	40	-18	2
1	270	0.8	0.8	9	-49	46	6	2
1	271	0.7	0.8	-12	-13	-35	-50	1
1	272	0.4	0.2	37	-8	27	-24	1
1	273	0.3	0.6	-19	-28	45	-31	2
1	274	0.4	0.4	-26	-50	-14	-16	2
1	275	0.6	0.9	18	-9	24	19	2
1	276	0.2	0.6	17	7	-10	-27	1
1	277	0.5	0.8	47	-40	15	-33	2
1	278	0.5	0.1	19	6	46	2	1
1	279	0.7	0.2	12	-30	27	-8	2
1	280	0.5	0.9	31	-32	43	-41	2
1	281	0.4	0.7	-35	-45	-27	-45	2
1	282	0.2	0.6	45	-13	47	-13	2
1	283	0.7	0.2	19	-27	-12	-48	1
1	284	0.9	0.9	26	-31	20	-8	2
1	285	0.8	0.6	27	24	35	12	1
1	286	0.4	0.1	22	-20	30	3	2
1	287	0.5	0.5	16	-31	38	-19	1
1	288	0.4	0.2	47	44	38	18	1
1	289	0.7	0.4	8	-39	50	-18	2
1	290	0.7	0.4	19	-25	33	-41	1
1	291	0.7	0.9	39	15	23	-42	1
1	292	0.8	0.4	8	-39	21	-40	1
1	293	0.2	0.7	5	4	47	13	2
1	294	0.2	0.5	4	-4	20	-43	1
1	295	0.5	0.6	-3	-34	48	34	2
1	296	0.5	0.7	16	-11	34	14	2
1	297	0.5	0.2	35	-2	27	-44	1
1	298	0.4	0.6	-9	-35	24	-36	2
1	299	0.8	0.2	28	-21	30	8	1
1	300	0.4	0.6	43	-31	13	-33	1
2	1	0.2	0.2	8	-22	43	35	2
2	2	0.2	0.6	18	-12	-19	-32	1
2	3	0.3	0.2	29	-37	28	19	2
2	4	0.3	0.1	-39	-45	-7	-16	2
2	5	0.3	0.9	34	12	49	25	2
2	6	0.9	0.6	43	-25	50	-29	1
2	7	0.5	0.1	-13	-35	21	-19	2
2	8	0.2	0.5	22	-12	25	-28	2
2	9	0.8	0.5	-12	-50	15	8	2
2	10	0.2	0.5	50	-5	6	-22	1
2	11	0.7	0.2	33	22	4	-37	1
2	12	0.1	0.1	3	-47	-15	-25	1
2	13	0.5	0.9	19	-34	39	-49	2
2	14	0.8	0.3	29	19	4	-41	1
2	15	0.9	0.9	26	2	17	5	2
2	16	0.1	0.1	-12	-16	45	37	2
2	17	0.2	0.9	7	-44	9	-42	2
2	18	0.9	0.1	23	-24	39	14	2
2	19	0.4	0.8	32	21	29	10	1
2	20	0.8	0.3	-37	-49	18	-49	2
2	21	0.5	0.4	26	-31	18	-30	1
2	22	0.6	0.4	15	-27	19	10	2
2	23	0.9	0.9	8	-21	38	33	2
2	24	0.8	0.7	30	4	-14	-31	1
2	25	0.7	0.4	20	17	21	-38	1
2	26	0.4	0.9	21	-40	-11	-29	2
2	27	0.2	0.4	25	-8	30	-3	2
2	28	0.9	0.6	24	11	7	-12	1
2	29	0.3	0.7	44	-17	-14	-48	1
2	30	0.8	0.4	25	1	19	-14	1
2	31	0.3	0.1	35	-2	4	-20	1
2	32	0.2	0.7	2	-42	8	-14	2
2	33	0.9	0.3	35	1	39	-50	1
2	34	0.3	0.8	13	-4	33	-49	1
2	35	0.9	0.2	24	-12	15	-5	1
2	36	0.7	0.1	23	-19	-20	-27	1
2	37	0.4	0.5	24	-39	49	-6	2
2	38	0.9	0.9	50	28	41	-19	1
2	39	0.9	0.6	15	-28	-13	-22	1
2	40	0.2	0.2	50	-6	47	42	2
2	41	0.4	0.6	10	-38	0	-12	2
2	42	0.1	0.7	39	-17	26	4	2
2	43	0.2	0.1	38	-49	28	-22	1
2	44	0.9	0.2	-11	-25	50	37	2
2	45	0.4	0.7	30	-32	34	-39	2
2	46	0.7	0.8	6	-22	-22	-50	1
2	47	0.9	0.9	9	-14	40	-23	2
2	48	0.8	0.6	-43	-46	20	13	2
2	49	0.6	0.1	31	-39	15	-16	1
2	50	0.8	0.9	-12	-23	15	0	2
2	51	0.1	0.3	-4	-19	38	10	2
2	52	0.9	0.6	37	-46	24	-27	1
2	53	0.4	0.7	16	-32	34	-31	2
2	54	0.9	0.9	36	27	14	-32	1
2	55	0.2	0.7	1	-49	33	-48	2
2	56	0.6	0.8	-7	-29	33	7	2
2	57	0.4	0.2	9	-8	29	-24	1
2	58	0.3	0.6	-16	-35	45	10	2
2	59	0.5	0.6	49	-14	17	-13	1
2	60	0.3	0.6	-4	-11	18	-10	2
2	61	0.6	0.4	-20	-43	-8	-18	1
2	62	0.5	0.7	15	-16	16	11	2
2	63	0.1	0.7	32	8	-10	-12	1
2	64	0.8	0.3	10	-35	2	-35	1
2	65	0.9	0.4	-30	-41	9	-25	2
2	66	0.1	0.2	-25	-37	-9	-17	2
2	67	0.9	0.7	22	-5	34	-35	1
2	68	0.9	0.3	-28	-37	-4	-42	2
2	69	0.1	0.7	27	-34	9	-3	2
2	70	0.6	0.9	16	6	-45	-49	1
2	71	0.6	0.3	33	11	-1	-7	1
2	72	0.7	0.5	42	-1	15	-42	1
2	73	0.6	0.8	49	25	20	-29	1
2	74	0.4	0.3	27	-38	-13	-19	1
2	75	0.8	0.5	11	-11	-5	-41	1
2	76	0.2	0.8	22	-3	1	-35	1
2	77	0.1	0.9	15	-18	-14	-48	1
2	78	0.1	0.6	47	33	48	-23	1
2	79	0.7	0.1	39	-8	-24	-27	1
2	80	0.9	0.7	16	-22	48	-27	2
2	81	0.3	0.7	28	14	37	-33	1
2	82	0.2	0.8	40	22	28	25	2
2	83	0.9	0.2	9	-35	34	-50	1
2	84	0.9	0.9	37	-45	40	-45	2
2	85	0.9	0.5	-13	-33	30	-26	2
2	86	0.5	0.6	32	-23	-3	-45	1
2	87	0.1	0.5	34	9	47	-41	1
2	88	0.5	0.4	-26	-35	35	24	2
2	89	0.5	0.4	6	-15	-4	-47	1
2	90	0.1	0.5	45	-28	16	-17	2
2	91	0.2	0.4	47	-5	38	-39	2
2	92	0.4	0.5	15	-41	40	-12	2
2	93	0.5	0.5	49	-21	49	-38	1
2	94	0.5	0.5	10	-5	45	-37	2
2	95	0.5	0.7	24	19	3	-39	1
2	96	0.5	0.9	19	3	-1	-37	1
2	97	0.8	0.7	-9	-43	44	-32	2
2	98	0.9	0.1	47	27	50	-22	1
2	99	0.3	0.8	35	30	27	-32	1
2	100	0.4	0.2	25	-25	29	28	2
2	101	0.5	0.9	-38	-42	24	11	2
2	102	0.5	0.1	-1	-38	46	-47	2
2	103	0.2	0.6	26	2	12	-14	1
2	104	0.3	0.2	-35	-42	28	7	2
2	105	0.9	0.2	7	-37	21	6	1
2	106	0.3	0.1	2	-29	40	-38	1
2	107	0.1	0.5	7	-47	3	-18	2
2	108	0.6	0.4	-14	-50	6	-49	2
2	109	0.5	0.3	32	17	45	-31	1
2	110	0.5	0.8	-10	-26	5	-48	2
2	111	0.7	0.1	-8	-33	26	-10	2
2	112	0.7	0.4	43	-26	32	-41	1
2	113	0.1	0.1	30	-24	38	-28	1
2	114	0.7	0.4	-21	-26	10	-22	2
2	115	0.6	0.4	23	17	7	-32	1
2	116	0.5	0.2	41	30	33	-37	1
2	117	0.2	0.8	-28	-48	34	3	2
2	118	0.4	0.2	-13	-30	47	33	2
2	119	0.9	0.2	47	25	20	-43	1
2	120	0.6	0.4	-3	-32	-7	-34	1
2	121	0.2	0.5	-20	-49	2	-22	2
2	122	0.7	0.9	9	-19	-12	-44	1
2	123	0.7	0.8	1	-20	17	-1	2
2	124	0.4	0.9	19	-38	-9	-48	1
2	125	0.7	0.3	8	-5	47	38	2
2	126	0.7	0.2	35	-4	16	6	1
2	127	0.8	0.4	46	9	-27	-43	1
2	128	0.2	0.7	-6	-28	40	31	2
2	129	0.2	0.2	31	-17	44	21	2
2	130	0.7	0.5	9	5	9	-2	1
2	131	0.9	0.3	26	-23	14	9	1
2	132	0.8	0.3	27	-12	-31	-35	1
2	133	0.1	0.7	-23	-25	16	-27	2
2	134	0.9	0.9	8	-48	2	-49	1
2	135	0.3	0.6	19	-34	-20	-31	1
2	136	0.4	0.3	26	-5	8	-31	1
2	137	0.4	0.2	40	25	39	-17	1
2	138	0.2	0.2	33	-33	40	31	2
2	139	0.1	0.1	28	-43	10	-26	2
2	140	0.6	0.9	14	6	3	-14	1
2	141	0.9	0.1	-2	-37	12	-33	1
2	142	0.9	0.5	35	26	44	39	2
2	143	0.5	0.9	50	36	35	-13	1
2	144	0.3	0.1	6	-44	-10	-36	1
2	145	0.8	0.9	47	10	3	-12	1
2	146	0.2	0.2	48	-43	-23	-31	2
2	147	0.1	0.1	-27	-50	12	4	2
2	148	0.3	0.7	33	2	48	7	2
2	149	0.4	0.8	24	23	34	-36	1
2	150	0.9	0.6	22	-30	25	21	2
2	151	0.3	0.5	48	43	-11	-49	1
2	152	0.6	0.4	10	-16	1	-9	2
2	153	0.4	0.7	41	-32	28	-21	2
2	154	0.6	0.9	45	25	14	-5	1
2	155	0.4	0.3	43	-49	44	6	2
2	156	0.1	0.9	36	-9	12	-30	2
2	157	0.9	0.5	-37	-48	42	-29	2
2	158	0.8	0.6	42	-42	2	-13	1
2	159	0.8	0.3	30	-10	4	-40	1
2	160	0.2	0.9	33	9	-21	-46	1
2	161	0.3	0.7	-24	-33	-2	-20	2
2	162	0.8	0.3	30	18	17	8	1
2	163	0.1	0.6	23	-37	26	-39	2
2	164	0.5	0.4	31	-50	49	-3	2
2	165	0.4	0.1	-4	-33	41	-8	2
2	166	0.7	0.1	16	-46	14	-35	1
2	167	0.6	0.9	-4	-34	46	2	2
2	168	0.6	0.1	-13	-21	10	-8	1
2	169	0.9	0.9	3	2	48	-35	2
2	170	0.4	0.6	13	-4	43	-43	2
2	171	0.6	0.6	-19	-43	24	-18	2
2	172	0.2	0.2	20	-14	50	-1	2
2	173	0.6	0.5	-42	-48	-24	-27	2
2	174	0.8	0.2	31	-20	4	-44	1
2	175	0.8	0.1	8	2	27	-28	1
2	176	0.4	0.1	29	1	3	-22	1
2	177	0.1	0.8	27	-34	9	-7	2
2	178	0.4	0.4	14	-7	45	-43	2
2	179	0.9	0.2	7	5	38	-33	1
2	180	0.5	0.9	37	-2	42	-26	2
2	181	0.4	0.1	45	3	13	-34	1
2	182	0.9	0.6	47	-28	39	-15	1
2	183	0.4	0.2	1	-3	26	-8	2
2	184	0.9	0.7	34	22	23	13	1
2	185	0.5	0.9	-2	-34	6	1	2
2	186	0.1	0.2	35	-36	44	-29	2
2	187	0.9	0.1	-5	-20	42	36	2
2	188	0.1	0.3	2	1	35	-20	1
2	189	0.6	0.6	-24	-39	39	-9	2
2	190	0.9	0.8	6	-35	13	-49	1
2	191	0.5	0.7	17	-30	1	-46	2
2	192	0.5	0.2	30	-43	34	9	2
2	193	0.3	0.1	49	-42	13	-1	2
2	194	0.6	0.2	50	19	-16	-29	1
2	195	0.1	0.2	36	6	34	3	1
2	196	0.9	0.7	-8	-26	12	1	2
2	197	0.7	0.3	-15	-35	8	-35	2
2	198	0.1	0.3	-27	-47	40	28	2
2	199	0.7	0.8	12	-15	-29	-38	1
2	200	0.7	0.9	26	-25	-5	-22	1
2	201	0.1	0.3	50	35	49	17	1
2	202	0.6	0.7	0	-28	26	-12	2
2	203	0.6	0.9	8	-8	8	1	2
2	204	0.4	0.4	15	13	35	-16	1
2	205	0.6	0.8	32	8	47	-8	2
2	206	0.4	0.4	48	-7	13	-1	1
2	207	0.9	0.9	7	-12	28	-24	2
2	208	0.2	0.3	36	11	34	-24	1
2	209	0.2	0.1	-36	-46	-34	-46	2
2	210	0.3	0.4	41	-28	11	-5	2
2	211	0.3	0.9	35	31	22	12	1
2	212	0.2	0.7	34	-47	7	4	2
2	213	0.3	0.5	-4	-7	23	-36	1
2	214	0.6	0.7	30	12	-6	-22	1
2	215	0.4	0.5	28	27	12	-35	1
2	216	0.5	0.2	-7	-28	27	17	2
2	217	0.1	0.8	50	-17	4	-16	2
2	218	0.1	0.6	-15	-30	34	19	2
2	219	0.8	0.7	19	-19	-17	-32	1
2	220	0.3	0.7	24	14	-8	-31	1
2	221	0.4	0.3	34	-16	12	-17	1
2	222	0.3	0.7	25	-35	43	41	2
2	223	0.7	0.8	37	11	39	26	2
2	224	0.1	0.7	21	-29	39	-41	2
2	225	0.4	0.5	25	14	50	-19	2
2	226	0.7	0.9	24	-14	18	-10	1
2	227	0.7	0.7	37	-31	13	-1	1
2	228	0.8	0.4	3	-26	-20	-48	1
2	229	0.9	0.8	35	-14	24	-40	1
2	230	0.3	0.5	7	-47	31	-21	2
2	231	0.1	0.6	28	-27	-34	-46	2
2	232	0.9	0.6	-18	-41	37	-44	2
2	233	0.8	0.2	-22	-28	-5	-46	1
2	234	0.2	0.4	12	-39	12	-3	2
2	235	0.1	0.7	29	-13	-17	-42	1
2	236	0.9	0.1	31	26	6	-23	1
2	237	0.4	0.2	42	-11	47	-29	1
2	238	0.9	0.8	-9	-29	-4	-47	2
2	239	0.1	0.9	31	-50	42	2	2
2	240	0.6	0.1	6	-14	26	-46	1
2	241	0.8	0.9	35	-46	-10	-35	1
2	242	0.1	0.8	11	-6	26	-13	2
2	243	0.8	0.8	31	-2	22	-15	1
2	244	0.7	0.8	22	6	41	-22	2
2	245	0.8	0.6	-42	-47	33	-9	2
2	246	0.5	0.9	15	-25	1	-22	1
2	247	0.8	0.8	-40	-50	11	4	2
2	248	0.2	0.7	50	34	5	-24	1
2	249	0.1	0.6	7	-17	49	-1	2
2	250	0.7	0.8	27	-50	17	-10	2
2	251	0.2	0.7	47	-33	23	-46	2
2	252	0.6	0.5	27	-37	-18	-31	1
2	253	0.5	0.9	-1	-49	-2	-17	2
2	254	0.5	0.2	-19	-28	46	-47	2
2	255	0.5	0.4	-7	-20	38	4	2
2	256	0.3	0.4	20	-4	27	13	2
2	257	0.8	0.1	-15	-16	45	-10	2
2	258	0.6	0.5	19	1	-21	-42	1
2	259	0.1	0.3	5	-4	20	-8	2
2	260	0.1	0.7	-36	-37	29	22	2
2	261	0.4	0.5	24	0	11	-20	1
2	262	0.5	0.3	-42	-48	24	-7	2
2	263	0.1	0.7	29	6	15	-35	2
2	264	0.4	0.6	-13	-47	48	-2	2
2	265	0.5	0.1	36	4	21	-24	1
2	266	0.8	0.4	-13	-38	38	-8	2
2	267	0.5	0.1	41	-22	-1	-12	1
2	268	0.7	0.4	40	30	16	-18	1
2	269	0.4	0.3	11	-9	47	38	2
2	270	0.4	0.7	-10	-17	2	-11	2
2	271	0.9	0.1	-2	-20	28	13	2
2	272	0.9	0.6	-8	-38	45	-14	2
2	273	0.9	0.1	5	-8	0	-37	2
2	274	0.3	0.7	-10	-24	46	19	2
2	275	0.9	0.7	-22	-25	-14	-16	2
2	276	0.8	0.4	-21	-28	44	-4	2
2	277	0.2	0.7	18	-49	46	-17	2
2	278	0.2	0.6	50	-49	26	-18	2
2	279	0.5	0.6	30	17	50	38	2
2	280	0.4	0.7	43	-31	0	-27	1
2	281	0.3	0.3	21	-22	35	-49	1
2	282	0.2	0.3	25	-43	43	-50	2
2	283	0.8	0.5	8	-22	4	-39	1
2	284	0.8	0.6	-13	-20	21	-18	2
2	285	0.4	0.6	-8	-31	1	-9	2
2	286	0.2	0.1	20	-25	-3	-23	1
2	287	0.7	0.3	41	-47	46	-35	1
2	288	0.2	0.8	23	-48	31	-9	2
2	289	0.9	0.8	20	-38	-19	-38	1
2	290	0.8	0.5	27	12	47	35	2
2	291	0.5	0.8	43	8	19	-45	1
2	292	0.7	0.4	-7	-14	7	5	2
2	293	0.9	0.5	41	-12	48	29	1
2	294	0.5	0.8	29	-34	-21	-49	1
2	295	0.1	0.4	1	-6	49	-18	2
2	296	0.2	0.2	49	-40	-15	-20	1
2	297	0.8	0.6	40	-15	37	-8	1
2	298	0.5	0.9	7	-48	-17	-50	1
2	299	0.4	0.3	40	15	-6	-49	1
2	300	0.4	0.9	36	14	13	-29	1
3	1	0.5	0.5	46	32	36	10	1
3	2	0.3	0.1	0	-26	-34	-42	1
3	3	0.7	0.1	49	25	-29	-39	1
3	4	0.5	0.5	3	-18	8	-11	2
3	5	0.4	0.8	-12	-40	-17	-50	2
3	6	0.2	0.3	49	-14	-33	-39	1
3	7	0.3	0.1	-18	-19	30	8	2
3	8	0.2	0.4	48	-4	49	30	2
3	9	0.1	0.3	42	29	14	-7	1
3	10	0.1	0.3	-20	-40	39	1	2
3	11	0.9	0.2	37	-25	4	-9	1
3	12	0.8	0.7	-12	-46	25	-11	2
3	13	0.6	0.6	15	-41	17	-40	2
3	14	0.7	0.8	0	-4	32	9	2
3	15	0.2	0.6	47	-4	13	-41	1
3	16	0.4	0.7	11	-7	-11	-30	1
3	17	0.8	0.3	38	-42	-26	-39	1
3	18	0.1	0.7	47	-32	-11	-34	2
3	19	0.3	0.3	33	-7	32	-27	2
3	20	0.7	0.6	-9	-10	33	-47	2
3	21	0.1	0.9	17	-23	11	-2	2
3	22	0.9	0.8	-2	-49	36	4	2
3	23	0.3	0.3	11	-19	2	-38	1
3	24	0.6	0.8	-16	-20	25	-16	2
3	25	0.2	0.1	49	-43	18	-39	1
3	26	0.3	0.4	31	-49	-12	-50	1
3	27	0.5	0.3	42	1	49	-27	1
3	28	0.5	0.4	23	-21	29	-47	1
3	29	0.3	0.8	0	-35	6	-17	2
3	30	0.3	0.4	29	-22	35	6	2
3	31	0.7	0.7	-28	-35	-20	-34	1
3	32	0.8	0.1	2	-25	39	-5	1
3	33	0.4	0.5	18	-37	39	-40	2
3	34	0.8	0.7	19	-35	22	1	2
3	35	0.5	0.6	-32	-50	-2	-19	2
3	36	0.7	0.5	25	-47	35	0	1
3	37	0.8	0.5	-12	-27	36	10	2
3	38	0.9	0.3	28	9	12	-18	1
3	39	0.7	0.2	38	20	42	25	2
3	40	0.4	0.7	36	-20	21	-12	2
3	41	0.7	0.4	25	-36	-9	-24	1
3	42	0.9	0.6	34	-24	29	27	2
3	43	0.7	0.5	42	-14	49	30	2
3	44	0.7	0.6	-12	-18	-10	-49	1
3	45	0.1	0.3	-8	-30	29	-11	2
3	46	0.6	0.2	-13	-42	42	-1	2
3	47	0.4	0.1	-14	-31	-23	-46	1
3	48	0.5	0.9	37	-32	33	15	2
3	49	0.9	0.8	-6	-9	43	-27	2
3	50	0.3	0.3	11	-49	39	-27	1
3	51	0.7	0.8	19	-28	8	-23	1
3	52	0.5	0.4	-32	-46	22	-48	2
3	53	0.7	0.2	22	-30	36	30	2
3	54	0.3	0.3	13	-4	10	-36	1
3	55	0.5	0.6	19	-42	35	-34	2
3	56	0.1	0.2	49	-19	-16	-47	1
3	57	0.1	0.5	50	37	32	-17	1
3	58	0.1	0.3	-43	-45	28	-25	2
3	59	0.3	0.3	24	-7	34	-45	1
3	60	0.1	0.1	39	21	-22	-36	1
3	61	0.4	0.7	28	24	-26	-33	1
3	62	0.6	0.8	-13	-32	13	-34	2
3	63	0.4	0.2	-42	-50	20	3	2
3	64	0.4	0.9	41	32	35	9	1
3	65	0.5	0.2	18	-38	-48	-50	1
3	66	0.4	0.6	49	26	32	14	1
3	67	0.3	0.1	-3	-49	18	-36	2
3	68	0.9	0.7	42	33	-20	-30	1
3	69	0.4	0.9	-5	-27	-15	-42	2
3	70	0.8	0.9	-15	-43	3	-10	2
3	71	0.7	0.3	-7	-43	-23	-27	1
3	72	0.1	0.6	40	-50	10	-43	2
3	73	0.2	0.3	11	6	37	29	2
3	74	0.7	0.1	50	-3	28	-5	1
3	75	0.5	0.6	47	43	16	0	1
3	76	0.9	0.1	21	-2	48	-50	1
3	77	0.5	0.4	9	-5	-1	-2	2
3	78	0.5	0.1	-4	-36	28	16	2
3	79	0.8	0.5	-1	-3	44	5	2
3	80	0.5	0.3	5	-7	33	11	2
3	81	0.8	0.8	50	-21	47	-8	1
3	82	0.6	0.5	-11	-12	-5	-14	2
3	83	0.8	0.1	49	-23	8	-17	1
3	84	0.4	0.8	48	-15	13	-8	1
3	85	0.3	0.6	46	-47	-9	-44	2
3	86	0.5	0.1	-34	-44	37	-25	2
3	87	0.7	0.3	49	-43	26	-3	1
3	88	0.8	0.1	15	-30	37	-9	1
3	89	0.6	0.3	49	-26	50	-41	1
3	90	0.1	0.2	8	-6	11	-31	1
3	91	0.9	0.3	34	29	-7	-50	1
3	92	0.3	0.4	46	12	44	7	1
3	93	0.7	0.7	31	5	37	-5	1
3	94	0.5	0.4	15	-24	50	-33	2
3	95	0.6	0.6	-12	-17	13	-20	2
3	96	0.3	0.3	40	-50	28	13	2
3	97	0.1	0.5	21	-6	38	-32	2
3	98	0.2	0.8	-30	-40	-3	-5	2
3	99	0.4	0.6	12	-50	21	-43	2
3	100	0.3	0.5	-5	-32	30	-4	2
3	101	0.3	0.5	33	-6	11	-3	2
3	102	0.6	0.4	20	-6	-11	-40	1
3	103	0.5	0.9	19	-19	38	30	2
3	104	0.2	0.5	41	24	14	-44	1
3	105	0.8	0.4	-26	-49	20	-20	2
3	106	0.8	0.4	11	-5	-22	-26	1
3	107	0.8	0.6	44	-34	5	4	1
3	108	0.7	0.2	25	10	32	-7	1
3	109	0.5	0.2	45	31	24	11	1
3	110	0.9	0.6	47	-23	27	-21	1
3	111	0.7	0.9	42	27	32	16	2
3	112	0.9	0.2	37	26	14	-19	1
3	113	0.3	0.2	28	-44	47	-3	2
3	114	0.2	0.6	42	10	30	23	1
3	115	0.7	0.2	10	-48	-8	-18	1
3	116	0.1	0.7	39	21	45	42	1
3	117	0.1	0.8	28	-36	32	-46	2
3	118	0.9	0.1	-35	-48	12	-15	2
3	119	0.3	0.6	-1	-14	35	28	2
3	120	0.2	0.5	34	1	48	-44	2
3	121	0.3	0.2	34	-27	49	21	2
3	122	0.7	0.6	-18	-49	-18	-46	1
3	123	0.5	0.1	8	-47	29	-7	2
3	124	0.9	0.7	47	-45	7	-7	1
3	125	0.8	0.7	48	-30	5	-39	1
3	126	0.3	0.7	9	-26	32	-35	2
3	127	0.1	0.6	0	-16	33	-9	2
3	128	0.1	0.6	35	19	21	-46	1
3	129	0.3	0.6	-10	-44	-5	-9	2
3	130	0.8	0.5	-24	-44	20	-43	2
3	131	0.7	0.2	21	-37	19	-35	1
3	132	0.6	0.6	39	31	-23	-26	1
3	133	0.2	0.9	40	-47	45	36	2
3	134	0.6	0.8	27	-6	24	22	1
3	135	0.1	0.5	38	-45	39	-7	2
3	136	0.3	0.5	-1	-2	11	-50	1
3	137	0.5	0.7	-38	-42	30	-31	2
3	138	0.2	0.1	29	8	28	-12	1
3	139	0.1	0.5	10	-3	44	1	2
3	140	0.2	0.2	29	27	41	-21	1
3	141	0.6	0.1	24	-35	-6	-37	1
3	142	0.1	0.7	14	-39	21	-45	2
3	143	0.3	0.6	-26	-39	26	-43	2
3	144	0.1	0.4	7	-17	-35	-45	1
3	145	0.2	0.8	16	-50	46	-30	2
3	146	0.6	0.9	29	-47	-15	-17	1
3	147	0.8	0.9	46	-27	45	-5	2
3	148	0.4	0.4	12	11	-5	-47	1
3	149	0.4	0.1	48	42	18	-36	1
3	150	0.5	0.3	-11	-23	50	-35	2
3	151	0.4	0.5	29	-35	47	-21	2
3	152	0.3	0.5	19	-21	-40	-49	1
3	153	0.4	0.1	42	-1	-37	-50	1
3	154	0.4	0.9	13	-17	-2	-11	1
3	155	0.2	0.7	37	-4	-19	-22	1
3	156	0.9	0.5	33	-28	33	-6	1
3	157	0.1	0.7	15	-28	-41	-49	1
3	158	0.4	0.7	41	-40	48	39	2
3	159	0.4	0.1	28	0	32	26	2
3	160	0.8	0.1	-13	-27	-19	-28	1
3	161	0.6	0.6	4	-13	31	1	2
3	162	0.2	0.5	-18	-42	47	26	2
3	163	0.4	0.1	43	40	-20	-28	1
3	164	0.6	0.6	14	-50	-34	-35	1
3	165	0.3	0.3	-2	-37	50	-41	2
3	166	0.9	0.8	24	18	46	-48	1
3	167	0.5	0.5	7	2	41	-23	2
3	168	0.8	0.6	26	20	29	24	1
3	169	0.4	0.7	31	-26	31	-8	2
3	170	0.9	0.1	14	-1	-33	-50	1
3	171	0.4	0.2	-28	-30	37	-41	2
3	172	0.3	0.6	41	-42	37	29	2
3	173	0.5	0.6	29	-50	42	6	2
3	174	0.1	0.7	31	-42	47	-12	2
3	175	0.2	0.9	22	-36	-2	-5	1
3	176	0.2	0.7	49	21	24	-25	1
3	177	0.8	0.5	48	31	7	-21	1
3	178	0.2	0.3	-12	-38	14	-22	2
3	179	0.7	0.5	39	27	12	-28	1
3	180	0.9	0.7	4	-26	9	-16	1
3	181	0.4	0.6	-8	-37	34	16	2
3	182	0.7	0.4	3	-50	2	-27	1
3	183	0.2	0.1	4	-14	27	26	2
3	184	0.9	0.7	-33	-36	43	-36	2
3	185	0.1	0.2	-27	-40	22	5	2
3	186	0.4	0.7	31	-13	6	-45	1
3	187	0.3	0.5	24	-3	-38	-44	1
3	188	0.7	0.7	48	-46	3	-41	1
3	189	0.5	0.7	2	-9	30	2	2
3	190	0.1	0.7	46	14	26	-49	1
3	191	0.8	0.5	-34	-42	48	24	2
3	192	0.8	0.1	37	-25	37	-14	1
3	193	0.1	0.2	38	30	12	-2	1
3	194	0.2	0.3	-3	-50	35	-27	2
3	195	0.2	0.9	-28	-39	48	5	2
3	196	0.4	0.9	27	-9	-12	-30	1
3	197	0.6	0.1	-7	-27	25	7	2
3	198	0.7	0.7	-36	-42	9	-27	2
3	199	0.2	0.6	22	-38	40	11	2
3	200	0.4	0.4	42	-45	50	-34	2
3	201	0.3	0.5	50	-6	38	-40	1
3	202	0.9	0.4	40	-11	40	-18	1
3	203	0.3	0.6	-7	-13	34	-25	2
3	204	0.5	0.6	36	-14	-7	-15	1
3	205	0.5	0.6	36	5	-11	-28	1
3	206	0.2	0.2	43	31	9	-5	1
3	207	0.9	0.2	0	-42	34	-49	1
3	208	0.4	0.4	31	13	4	-4	1
3	209	0.8	0.1	-1	-30	-21	-38	1
3	210	0.6	0.1	28	-9	24	-43	1
3	211	0.9	0.9	-4	-21	13	-24	2
3	212	0.2	0.7	7	-50	48	33	2
3	213	0.7	0.7	-17	-46	33	-40	2
3	214	0.2	0.5	22	-43	31	-14	2
3	215	0.5	0.9	-4	-14	18	-18	2
3	216	0.6	0.4	-10	-13	-45	-48	1
3	217	0.3	0.4	9	-32	-15	-44	2
3	218	0.3	0.7	41	7	0	-1	1
3	219	0.3	0.9	5	-19	-20	-28	1
3	220	0.5	0.1	41	-42	-30	-31	1
3	221	0.8	0.7	-5	-45	30	-48	2
3	222	0.8	0.4	-8	-44	23	-5	2
3	223	0.5	0.1	-22	-28	-36	-39	1
3	224	0.7	0.6	-2	-48	33	-28	2
3	225	0.3	0.7	15	-11	7	-36	2
3	226	0.6	0.4	25	-25	50	16	2
3	227	0.6	0.2	19	-37	34	-8	1
3	228	0.2	0.9	-8	-10	30	14	2
3	229	0.4	0.1	31	-23	44	-45	1
3	230	0.6	0.3	2	-28	44	-47	1
3	231	0.7	0.6	-21	-47	-4	-9	2
3	232	0.1	0.3	47	33	-45	-47	1
3	233	0.2	0.1	43	12	34	2	1
3	234	0.3	0.3	26	6	-21	-27	1
3	235	0.2	0.2	-30	-41	48	9	2
3	236	0.6	0.5	32	29	27	25	1
3	237	0.3	0.5	18	-16	4	-34	1
3	238	0.8	0.3	39	33	3	-13	1
3	239	0.7	0.2	5	-45	1	-3	1
3	240	0.1	0.1	-33	-34	32	7	2
3	241	0.5	0.7	40	23	4	-15	1
3	242	0.1	0.7	26	-21	16	-27	2
3	243	0.7	0.4	-18	-27	42	-40	2
3	244	0.6	0.4	-8	-49	48	-36	2
3	245	0.9	0.8	29	-3	-43	-49	1
3	246	0.5	0.9	34	-5	41	-15	2
3	247	0.2	0.1	-10	-16	34	-22	2
3	248	0.2	0.8	27	22	31	-37	2
3	249	0.9	0.9	-17	-29	37	-22	2
3	250	0.5	0.9	-9	-32	45	38	2
3	251	0.8	0.6	36	10	12	-22	1
3	252	0.3	0.2	-6	-32	19	-36	2
3	253	0.2	0.7	7	-6	16	-35	2
3	254	0.2	0.6	45	-43	37	36	2
3	255	0.3	0.6	41	-33	23	-14	2
3	256	0.5	0.6	-7	-28	-2	-24	2
3	257	0.8	0.7	44	12	14	-14	1
3	258	0.9	0.6	32	-49	46	-39	1
3	259	0.8	0.2	-34	-37	-6	-41	2
3	260	0.3	0.1	47	4	-6	-42	1
3	261	0.9	0.9	37	-17	29	-26	1
3	262	0.6	0.3	-16	-18	44	-46	1
3	263	0.4	0.5	4	-45	7	-12	2
3	264	0.5	0.8	-27	-48	38	-50	2
3	265	0.6	0.6	10	-27	28	-30	2
3	266	0.3	0.8	-18	-42	-22	-31	1
3	267	0.8	0.7	39	-12	-34	-49	1
3	268	0.6	0.7	46	-37	43	4	2
3	269	0.2	0.6	30	-6	-30	-32	1
3	270	0.5	0.2	38	22	36	-26	1
3	271	0.3	0.6	-27	-39	50	46	2
3	272	0.8	0.2	-20	-27	50	-25	2
3	273	0.9	0.5	27	-33	38	-23	1
3	274	0.4	0.9	24	-43	-14	-15	1
3	275	0.4	0.4	33	17	33	-1	1
3	276	0.8	0.7	28	25	-30	-48	1
3	277	0.7	0.4	-12	-31	5	-46	2
3	278	0.8	0.2	31	9	47	3	1
3	279	0.4	0.8	-9	-18	20	5	2
3	280	0.9	0.9	-2	-49	8	-25	2
3	281	0.8	0.9	33	-19	-3	-35	1
3	282	0.6	0.3	36	32	25	17	1
3	283	0.4	0.5	12	4	28	12	2
3	284	0.3	0.6	22	6	5	-16	1
3	285	0.1	0.4	44	0	15	-35	1
3	286	0.6	0.9	17	14	-8	-10	1
3	287	0.6	0.4	40	15	16	-32	1
3	288	0.2	0.4	-1	-50	-4	-17	2
3	289	0.4	0.4	-15	-39	44	5	2
3	290	0.6	0.7	41	-48	14	-9	2
3	291	0.2	0.6	11	-42	16	-2	2
3	292	0.6	0.3	42	-5	33	-8	1
3	293	0.2	0.5	45	36	20	-31	1
3	294	0.8	0.8	24	18	35	32	2
3	295	0.2	0.3	47	22	33	-19	1
3	296	0.8	0.8	9	0	-13	-20	1
3	297	0.8	0.6	-27	-42	42	-45	2
3	298	0.3	0.4	32	8	31	18	2
3	299	0.6	0.6	49	-21	39	12	2
3	300	0.5	0.8	48	24	-5	-49	1
4	1	0.9	0.3	-20	-48	17	6	2
4	2	0.8	0.7	13	-33	-2	-13	1
4	3	0.8	0.6	-24	-26	28	-48	2
4	4	0.6	0.2	1	-19	-12	-46	1
4	5	0.3	0.2	10	-44	-26	-38	1
4	6	0.9	0.8	-12	-20	15	-50	2
4	7	0.1	0.2	12	-27	34	13	2
4	8	0.2	0.3	10	-30	23	-15	2
4	9	0.7	0.5	29	-13	38	9	2
4	10	0.1	0.9	23	16	45	-27	2
4	11	0.6	0.3	11	-46	9	-46	1
4	12	0.1	0.5	-36	-43	32	15	2
4	13	0.8	0.5	-7	-35	22	-30	2
4	14	0.6	0.7	50	24	-3	-43	1
4	15	0.6	0.5	49	4	-41	-46	1
4	16	0.7	0.5	39	38	45	-15	1
4	17	0.1	0.8	50	-2	7	-26	2
4	18	0.8	0.3	23	-14	34	6	2
4	19	0.2	0.8	22	3	-8	-23	2
4	20	0.5	0.5	33	-9	-19	-25	1
4	21	0.8	0.7	48	6	32	8	1
4	22	0.7	0.6	48	-26	48	5	2
4	23	0.7	0.6	9	-25	-22	-39	1
4	24	0.5	0.6	41	-21	-28	-41	1
4	25	0.8	0.7	19	11	47	-32	1
4	26	0.6	0.7	22	0	-21	-44	1
4	27	0.9	0.1	-9	-44	50	-32	2
4	28	0.3	0.3	1	-22	32	12	2
4	29	0.4	0.7	22	-16	27	-12	2
4	30	0.7	0.6	14	-10	27	-8	2
4	31	0.4	0.3	50	31	2	-2	1
4	32	0.1	0.8	47	-36	-22	-32	2
4	33	0.7	0.9	1	-3	37	-30	2
4	34	0.3	0.9	36	8	23	10	1
4	35	0.1	0.3	28	27	-36	-45	1
4	36	0.5	0.3	42	-27	46	1	2
4	37	0.9	0.5	28	10	29	20	2
4	38	0.1	0.9	10	-17	25	18	2
4	39	0.2	0.3	37	23	-24	-41	1
4	40	0.2	0.2	18	-40	42	-48	2
4	41	0.3	0.6	18	-27	41	39	2
4	42	0.4	0.7	21	6	-1	-50	1
4	43	0.4	0.4	15	14	20	-35	1
4	44	0.1	0.8	13	-49	44	33	2
4	45	0.3	0.2	-31	-42	30	-45	2
4	46	0.6	0.4	-12	-23	22	-42	2
4	47	0.9	0.1	-26	-40	-25	-30	2
4	48	0.7	0.2	38	-27	34	-13	1
4	49	0.9	0.1	42	-31	45	-1	1
4	50	0.5	0.8	41	-3	37	-12	1
4	51	0.2	0.5	31	2	17	-44	1
4	52	0.8	0.8	-4	-31	16	-15	2
4	53	0.9	0.3	24	1	15	-4	1
4	54	0.8	0.4	9	-22	28	-5	2
4	55	0.9	0.3	47	-24	17	-16	1
4	56	0.8	0.4	-12	-14	-13	-21	2
4	57	0.1	0.9	1	-50	4	-36	2
4	58	0.6	0.7	10	-36	-16	-22	1
4	59	0.5	0.2	26	13	24	-31	1
4	60	0.4	0.9	1	-15	18	-41	2
4	61	0.1	0.5	41	32	-33	-47	1
4	62	0.6	0.4	4	-25	-12	-50	1
4	63	0.6	0.2	-2	-22	25	5	2
4	64	0.5	0.3	-2	-8	34	31	2
4	65	0.9	0.9	6	-26	-6	-45	1
4	66	0.1	0.2	23	0	38	-6	2
4	67	0.8	0.7	-25	-40	9	-37	1
4	68	0.5	0.2	-5	-14	48	-18	2
4	69	0.2	0.1	6	-34	0	-50	1
4	70	0.9	0.1	22	-2	-7	-47	1
4	71	0.5	0.5	41	29	41	23	1
4	72	0.3	0.5	2	-4	20	-24	2
4	73	0.5	0.9	-14	-42	2	-13	2
4	74	0.9	0.9	46	16	49	2	1
4	75	0.9	0.3	49	39	-16	-29	1
4	76	0.1	0.2	36	-28	40	-15	2
4	77	0.5	0.9	3	-7	35	15	2
4	78	0.1	0.4	3	-18	32	-12	2
4	79	0.7	0.6	22	-34	18	4	2
4	80	0.8	0.2	5	-6	16	-14	1
4	81	0.3	0.9	24	9	-9	-32	1
4	82	0.4	0.9	23	13	11	-46	1
4	83	0.9	0.5	38	-6	-5	-32	1
4	84	0.7	0.5	-23	-48	-26	-32	2
4	85	0.2	0.8	19	-14	48	31	2
4	86	0.3	0.2	50	39	33	30	1
4	87	0.5	0.8	-33	-50	35	-45	2
4	88	0.8	0.3	30	-5	32	-33	1
4	89	0.1	0.8	-31	-40	35	4	2
4	90	0.9	0.1	41	10	4	-49	1
4	91	0.7	0.3	-9	-30	41	-26	2
4	92	0.9	0.5	-20	-31	-25	-41	1
4	93	0.3	0.8	45	-15	28	-17	2
4	94	0.5	0.4	-24	-37	36	32	2
4	95	0.8	0.1	18	-45	19	-10	1
4	96	0.8	0.7	37	-19	-10	-40	1
4	97	0.1	0.6	46	13	-30	-39	1
4	98	0.3	0.4	15	-4	46	17	2
4	99	0.4	0.4	-12	-32	45	38	2
4	100	0.5	0.4	36	-19	-11	-13	1
4	101	0.3	0.5	47	32	-21	-47	1
4	102	0.3	0.3	-2	-25	-33	-34	1
4	103	0.4	0.2	39	1	25	-35	1
4	104	0.3	0.9	32	-32	35	21	2
4	105	0.2	0.3	-9	-26	36	-4	2
4	106	0.9	0.1	-10	-21	9	-3	2
4	107	0.2	0.7	47	28	11	-22	1
4	108	0.1	0.8	38	-4	39	38	2
4	109	0.8	0.2	-28	-36	36	17	2
4	110	0.6	0.6	10	-50	-2	-42	1
4	111	0.7	0.4	37	-5	5	-44	1
4	112	0.9	0.6	22	-36	26	-12	1
4	113	0.8	0.5	11	-2	49	-41	1
4	114	0.2	0.9	8	-25	29	-49	2
4	115	0.6	0.3	-39	-49	6	-42	2
4	116	0.7	0.9	44	-3	44	-33	2
4	117	0.2	0.4	48	43	46	-34	1
4	118	0.2	0.4	33	-33	-16	-36	1
4	119	0.5	0.4	47	-48	19	12	2
4	120	0.3	0.8	50	49	18	-3	1
4	121	0.2	0.6	-11	-34	24	-21	2
4	122	0.2	0.3	-33	-39	-20	-21	2
4	123	0.5	0.8	-23	-46	-30	-43	2
4	124	0.3	0.5	32	23	34	7	2
4	125	0.3	0.5	-15	-50	-32	-37	2
4	126	0.1	0.9	7	-25	46	7	2
4	127	0.2	0.9	-40	-48	19	-1	2
4	128	0.4	0.6	41	-21	-23	-25	1
4	129	0.9	0.5	-29	-36	13	-27	2
4	130	0.4	0.7	37	34	32	21	1
4	131	0.2	0.3	21	2	-39	-49	1
4	132	0.5	0.9	39	3	6	-24	1
4	133	0.3	0.9	37	-19	-2	-17	1
4	134	0.4	0.2	50	-8	-18	-41	1
4	135	0.5	0.7	-7	-29	16	-41	2
4	136	0.2	0.2	27	-32	20	-31	1
4	137	0.3	0.5	32	-7	24	-11	2
4	138	0.5	0.6	-25	-40	-28	-33	2
4	139	0.4	0.3	42	30	45	-19	1
4	140	0.8	0.4	25	-26	-4	-20	1
4	141	0.4	0.3	9	-50	36	-14	2
4	142	0.2	0.1	6	-30	-8	-33	1
4	143	0.7	0.1	4	-14	3	-12	1
4	144	0.4	0.7	32	10	47	-36	2
4	145	0.5	0.4	36	15	24	-3	1
4	146	0.8	0.2	23	7	10	-16	1
4	147	0.6	0.7	14	-44	19	14	2
4	148	0.7	0.4	-27	-39	-41	-43	2
4	149	0.4	0.6	50	-19	-25	-42	1
4	150	0.2	0.6	1	-34	29	-29	2
4	151	0.2	0.3	16	-49	7	-32	1
4	152	0.6	0.6	5	-39	12	-43	1
4	153	0.4	0.2	28	-36	32	-24	1
4	154	0.9	0.9	17	-9	5	0	1
4	155	0.4	0.4	23	-47	-9	-37	1
4	156	0.4	0.9	45	-44	28	-37	2
4	157	0.8	0.6	21	12	-14	-17	1
4	158	0.1	0.2	33	16	37	-24	1
4	159	0.7	0.9	-31	-35	50	13	2
4	160	0.5	0.7	-4	-17	-24	-35	1
4	161	0.2	0.3	45	40	14	-15	1
4	162	0.1	0.5	39	-10	-13	-21	1
4	163	0.4	0.8	-3	-24	27	15	2
4	164	0.2	0.5	16	0	37	-46	2
4	165	0.6	0.4	3	-41	49	27	2
4	166	0.7	0.6	21	5	11	-8	1
4	167	0.6	0.4	48	-4	-12	-37	1
4	168	0.9	0.7	18	-49	30	-22	2
4	169	0.2	0.6	-28	-32	23	-35	2
4	170	0.3	0.9	48	-41	40	-27	2
4	171	0.6	0.9	1	-1	4	-30	1
4	172	0.1	0.5	1	0	33	3	2
4	173	0.5	0.9	-8	-33	33	-46	2
4	174	0.1	0.4	-29	-37	22	4	2
4	175	0.4	0.3	20	-8	48	-12	2
4	176	0.9	0.2	15	-38	36	2	1
4	177	0.1	0.3	3	-37	34	-22	2
4	178	0.1	0.4	25	-48	26	-20	2
4	179	0.7	0.5	-1	-50	36	-11	2
4	180	0.8	0.3	50	-25	49	48	2
4	181	0.3	0.9	-4	-36	29	-5	2
4	182	0.8	0.1	47	21	12	-33	1
4	183	0.1	0.6	45	-31	33	26	2
4	184	0.5	0.7	37	-8	7	3	1
4	185	0.1	0.5	12	-29	19	-36	1
4	186	0.1	0.4	34	27	-14	-26	1
4	187	0.1	0.1	32	30	23	-46	1
4	188	0.7	0.7	45	-14	33	-40	1
4	189	0.3	0.7	-1	-22	19	-46	2
4	190	0.7	0.9	-30	-45	-14	-33	2
4	191	0.3	0.9	-39	-44	15	-36	2
4	192	0.7	0.1	23	-35	13	-35	1
4	193	0.2	0.3	16	-42	48	-1	2
4	194	0.2	0.1	20	-38	38	-7	2
4	195	0.1	0.9	-33	-38	47	-2	2
4	196	0.3	0.9	47	-44	19	-36	2
4	197	0.7	0.4	40	27	49	46	2
4	198	0.5	0.3	-3	-42	24	9	2
4	199	0.5	0.9	9	-44	15	-19	2
4	200	0.6	0.3	-19	-33	-24	-26	2
4	201	0.4	0.5	-32	-48	27	-1	2
4	202	0.1	0.4	38	-15	-26	-35	2
4	203	0.1	0.2	39	-6	-14	-22	1
4	204	0.8	0.5	40	-35	17	-21	1
4	205	0.6	0.1	24	17	7	-28	1
4	206	0.4	0.5	36	12	45	-10	1
4	207	0.2	0.2	49	-23	-6	-18	2
4	208	0.7	0.1	47	-22	45	-43	1
4	209	0.1	0.3	29	17	21	16	1
4	210	0.2	0.7	16	-33	16	-37	2
4	211	0.5	0.8	7	-9	15	-44	2
4	212	0.8	0.2	40	-24	-4	-45	1
4	213	0.2	0.6	-11	-34	21	-17	2
4	214	0.8	0.6	7	-32	34	27	2
4	215	0.2	0.3	-17	-40	46	-45	2
4	216	0.6	0.8	16	-6	6	-44	1
4	217	0.2	0.7	17	6	12	8	1
4	218	0.5	0.4	-2	-23	34	-38	2
4	219	0.9	0.1	-30	-34	19	-45	2
4	220	0.9	0.6	42	-23	44	-46	1
4	221	0.5	0.8	40	-24	-16	-35	1
4	222	0.4	0.1	11	-1	-11	-38	1
4	223	0.4	0.2	-6	-40	27	-34	2
4	224	0.7	0.7	21	-12	23	-38	1
4	225	0.6	0.1	47	-14	9	-24	1
4	226	0.3	0.9	36	-23	16	-26	1
4	227	0.8	0.3	29	-20	35	-14	1
4	228	0.4	0.1	29	-33	21	-42	1
4	229	0.9	0.2	-27	-43	11	-48	2
4	230	0.2	0.1	22	-25	29	-13	2
4	231	0.9	0.6	14	-8	-12	-23	1
4	232	0.6	0.1	-13	-18	1	-23	1
4	233	0.3	0.5	22	-20	-2	-48	1
4	234	0.4	0.1	24	13	38	-43	1
4	235	0.9	0.7	40	-30	44	38	2
4	236	0.3	0.7	1	-26	-4	-41	1
4	237	0.2	0.6	20	-6	-22	-29	1
4	238	0.6	0.9	-9	-16	37	32	2
4	239	0.7	0.7	6	-8	40	2	2
4	240	0.6	0.6	10	-21	39	18	2
4	241	0.1	0.5	-3	-33	2	-47	2
4	242	0.9	0.3	-20	-43	37	11	2
4	243	0.9	0.1	27	-20	5	-14	1
4	244	0.9	0.2	3	-19	-41	-49	1
4	245	0.2	0.1	18	-5	45	-5	2
4	246	0.8	0.1	-13	-36	-10	-38	2
4	247	0.4	0.6	45	34	40	-17	1
4	248	0.5	0.9	36	17	-2	-36	1
4	249	0.1	0.1	14	1	-17	-38	1
4	250	0.4	0.1	6	-10	-1	-49	1
4	251	0.4	0.2	-10	-45	16	-13	2
4	252	0.8	0.9	-11	-18	4	-38	2
4	253	0.2	0.5	4	-49	8	1	2
4	254	0.1	0.4	-32	-39	41	27	2
4	255	0.1	0.5	14	1	-8	-21	1
4	256	0.3	0.8	7	0	-18	-24	1
4	257	0.9	0.1	24	-15	13	-40	1
4	258	0.8	0.9	33	-36	-2	-48	1
4	259	0.8	0.7	-42	-45	-17	-36	2
4	260	0.8	0.8	31	20	-29	-31	1
4	261	0.8	0.1	31	-25	-14	-45	1
4	262	0.5	0.8	29	-28	28	-37	2
4	263	0.6	0.3	-4	-23	-38	-43	1
4	264	0.8	0.2	36	-6	47	-35	1
4	265	0.4	0.5	-16	-41	48	22	2
4	266	0.5	0.3	-10	-20	-21	-23	1
4	267	0.9	0.3	17	-17	35	-17	1
4	268	0.4	0.2	12	5	47	11	2
4	269	0.8	0.8	10	-36	-23	-47	1
4	270	0.6	0.6	24	-20	11	2	2
4	271	0.9	0.5	35	-38	17	-26	1
4	272	0.1	0.9	9	-5	-32	-40	1
4	273	0.9	0.8	-37	-45	11	-28	2
4	274	0.1	0.2	13	-35	29	-46	1
4	275	0.2	0.2	36	23	33	-4	1
4	276	0.9	0.2	38	5	-4	-39	1
4	277	0.6	0.7	8	-35	43	40	2
4	278	0.6	0.2	16	-14	23	19	2
4	279	0.8	0.2	43	15	-21	-23	1
4	280	0.5	0.3	50	-45	11	-42	1
4	281	0.3	0.9	8	-18	6	-8	2
4	282	0.8	0.7	-34	-49	11	-7	2
4	283	0.5	0.6	22	-12	44	19	2
4	284	0.8	0.1	2	-15	22	-29	2
4	285	0.4	0.9	14	-20	27	-36	2
4	286	0.8	0.7	6	-18	42	-23	2
4	287	0.7	0.6	3	-17	33	19	2
4	288	0.3	0.3	7	-23	3	-17	1
4	289	0.4	0.6	29	-21	-26	-32	1
4	290	0.6	0.3	15	-4	14	-45	1
4	291	0.4	0.9	-10	-25	24	17	2
4	292	0.7	0.5	5	-41	15	-29	2
4	293	0.3	0.9	40	-23	10	-3	2
4	294	0.4	0.5	-1	-20	-3	-11	2
4	295	0.7	0.5	45	9	32	-22	1
4	296	0.2	0.7	18	-37	42	-15	2
4	297	0.6	0.9	16	-36	29	-32	2
4	298	0.3	0.2	5	-41	44	-43	2
4	299	0.2	0.6	23	-31	43	-33	2
4	300	0.3	0.4	43	9	-4	-31	1
5	1	0.5	0.9	6	-44	-11	-14	1
5	2	0.1	0.6	43	-4	34	-9	2
5	3	0.7	0.7	24	-25	-19	-21	1
5	4	0.9	0.3	-9	-14	22	-31	1
5	5	0.7	0.3	2	-16	30	-18	1
5	6	0.4	0.3	28	-27	35	26	2
5	7	0.8	0.3	27	-15	-2	-39	1
5	8	0.5	0.2	16	-40	18	-43	1
5	9	0.5	0.4	26	-33	20	15	2
5	10	0.7	0.1	8	-33	-18	-34	1
5	11	0.7	0.9	15	-24	32	9	1
5	12	0.7	0.4	-1	-50	30	-2	2
5	13	0.9	0.6	43	2	42	-10	2
5	14	0.6	0.7	12	-48	46	40	2
5	15	0.9	0.7	49	-40	49	26	1
5	16	0.2	0.3	47	-20	27	-12	2
5	17	0.6	0.3	41	20	-22	-44	1
5	18	0.5	0.4	32	-5	7	4	2
5	19	0.3	0.4	1	-10	15	-9	2
5	20	0.6	0.6	45	43	37	30	2
5	21	0.6	0.1	39	33	-31	-45	1
5	22	0.5	0.6	48	-47	39	-32	2
5	23	0.1	0.9	46	40	27	-9	1
5	24	0.6	0.3	-15	-28	16	-38	1
5	25	0.9	0.3	50	-24	-9	-21	1
5	26	0.3	0.2	44	-26	23	-5	1
5	27	0.1	0.6	46	16	32	4	2
5	28	0.8	0.4	30	8	-6	-33	1
5	29	0.5	0.4	50	-32	-15	-19	1
5	30	0.9	0.4	1	-34	9	-22	2
5	31	0.6	0.3	43	5	-5	-30	1
5	32	0.4	0.3	44	0	45	21	2
5	33	0.8	0.4	9	-5	47	-1	2
5	34	0.6	0.1	17	7	47	-5	1
5	35	0.5	0.7	2	-2	29	-20	2
5	36	0.7	0.7	35	32	38	7	1
5	37	0.6	0.3	15	-18	25	-31	1
5	38	0.3	0.3	32	-45	28	26	2
5	39	0.6	0.2	14	-42	15	-6	1
5	40	0.3	0.3	29	-18	35	17	2
5	41	0.9	0.6	44	-14	24	14	1
5	42	0.3	0.2	38	3	-20	-21	1
5	43	0.7	0.1	3	-7	2	-46	1
5	44	0.5	0.7	32	-45	0	-45	1
5	45	0.5	0.1	-2	-29	28	-37	2
5	46	0.4	0.4	31	-24	-7	-12	1
5	47	0.5	0.6	-21	-28	-27	-49	1
5	48	0.7	0.9	21	12	34	21	2
5	49	0.9	0.2	-3	-29	-43	-46	1
5	50	0.8	0.6	19	7	50	24	2
5	51	0.7	0.5	38	15	30	-40	1
5	52	0.3	0.4	0	-26	49	-19	2
5	53	0.9	0.6	23	-10	48	-1	1
5	54	0.9	0.8	16	-17	-2	-48	1
5	55	0.7	0.4	46	10	42	10	2
5	56	0.9	0.8	23	22	35	-2	1
5	57	0.1	0.6	47	14	22	-43	2
5	58	0.9	0.4	12	-41	27	18	2
5	59	0.3	0.2	27	25	36	16	1
5	60	0.1	0.4	7	-47	17	-15	2
5	61	0.4	0.7	33	32	36	-1	2
5	62	0.1	0.3	48	-8	45	-35	1
5	63	0.6	0.9	-23	-33	35	-18	2
5	64	0.8	0.5	12	-47	26	-46	1
5	65	0.3	0.8	19	-17	21	3	2
5	66	0.2	0.9	30	14	30	-9	1
5	67	0.5	0.8	44	-38	30	-11	2
5	68	0.1	0.1	-23	-40	47	44	2
5	69	0.2	0.9	40	7	24	6	1
5	70	0.6	0.4	26	7	21	12	2
5	71	0.7	0.6	41	-15	-16	-46	1
5	72	0.3	0.4	12	1	2	-40	1
5	73	0.6	0.2	-6	-13	4	-9	2
5	74	0.5	0.9	49	47	-16	-41	1
5	75	0.2	0.6	28	-22	10	-14	2
5	76	0.5	0.3	-9	-28	-13	-46	2
5	77	0.7	0.6	-1	-44	24	-10	2
5	78	0.5	0.4	50	-41	49	-8	2
5	79	0.4	0.7	-14	-33	-2	-9	2
5	80	0.4	0.7	15	-50	-2	-26	1
5	81	0.5	0.1	-38	-41	34	-46	1
5	82	0.3	0.5	19	-45	4	-33	2
5	83	0.5	0.1	48	32	36	-14	1
5	84	0.5	0.9	-18	-37	45	26	2
5	85	0.6	0.5	24	17	-21	-36	1
5	86	0.9	0.3	-5	-35	8	-33	2
5	87	0.5	0.8	40	26	35	29	2
5	88	0.2	0.3	14	-34	-3	-23	2
5	89	0.9	0.4	12	-22	5	-29	1
5	90	0.2	0.6	48	43	25	-40	1
5	91	0.4	0.8	-26	-41	23	5	2
5	92	0.6	0.8	37	2	-13	-40	2
5	93	0.4	0.2	12	10	47	-11	1
5	94	0.8	0.6	3	-19	16	-21	1
5	95	0.8	0.5	-2	-46	-16	-37	2
5	96	0.3	0.2	41	36	9	-28	1
5	97	0.6	0.4	0	-50	-15	-22	1
5	98	0.1	0.8	23	-27	-9	-22	1
5	99	0.8	0.7	13	-48	44	-50	1
5	100	0.9	0.8	2	1	32	29	2
5	101	0.9	0.1	40	-39	-10	-30	1
5	102	0.8	0.7	-15	-46	-25	-27	1
5	103	0.6	0.7	3	-5	-34	-49	1
5	104	0.2	0.8	47	45	-12	-30	1
5	105	0.4	0.7	19	-7	-20	-36	2
5	106	0.1	0.3	15	-32	3	-9	2
5	107	0.7	0.6	-15	-35	14	-21	2
5	108	0.2	0.4	-42	-43	-7	-40	1
5	109	0.9	0.2	12	-6	33	-37	1
5	110	0.8	0.4	49	-39	25	12	2
5	111	0.7	0.1	43	-3	-29	-45	1
5	112	0.9	0.5	25	-3	-6	-14	1
5	113	0.7	0.3	39	-36	42	-33	1
5	114	0.9	0.8	-6	-30	46	-21	2
5	115	0.5	0.7	41	24	11	-18	1
5	116	0.7	0.9	23	-19	30	19	2
5	117	0.4	0.1	-3	-36	37	14	2
5	118	0.5	0.1	9	-24	16	-19	1
5	119	0.8	0.3	43	-44	28	-27	1
5	120	0.9	0.6	16	-43	47	36	2
5	121	0.9	0.9	43	-14	-2	-12	1
5	122	0.6	0.5	-11	-14	39	-40	1
5	123	0.1	0.8	5	-13	45	-48	2
5	124	0.5	0.7	37	36	21	-44	1
5	125	0.4	0.5	49	8	-13	-25	1
5	126	0.1	0.1	17	7	29	-25	1
5	127	0.7	0.1	39	-46	15	-8	1
5	128	0.8	0.4	42	-23	8	-45	1
5	129	0.1	0.8	-43	-44	18	-19	2
5	130	0.1	0.5	42	25	13	-8	1
5	131	0.7	0.5	42	-40	41	-32	1
5	132	0.7	0.9	46	-43	40	19	1
5	133	0.9	0.9	2	-21	44	-42	2
5	134	0.3	0.1	25	-7	40	4	1
5	135	0.1	0.4	28	-27	-27	-31	1
5	136	0.1	0.1	18	-17	22	-15	1
5	137	0.7	0.5	17	7	28	-7	2
5	138	0.2	0.2	44	5	34	-3	2
5	139	0.2	0.9	16	-6	7	-7	2
5	140	0.3	0.8	46	44	31	18	1
5	141	0.6	0.4	9	-43	-3	-6	2
5	142	0.9	0.8	43	-41	18	-38	1
5	143	0.1	0.2	47	-49	45	37	2
5	144	0.8	0.3	9	-22	8	4	1
5	145	0.9	0.2	12	-17	-13	-47	1
5	146	0.5	0.2	-20	-24	7	-9	1
5	147	0.5	0.4	31	-46	-1	-37	1
5	148	0.1	0.8	49	14	43	-13	1
5	149	0.7	0.4	38	-24	37	-31	1
5	150	0.2	0.2	17	-50	-5	-23	1
5	151	0.6	0.8	-12	-36	14	-22	2
5	152	0.3	0.9	48	16	21	-33	2
5	153	0.1	0.1	-6	-9	45	-50	2
5	154	0.2	0.5	41	12	-22	-31	1
5	155	0.6	0.2	43	-30	-14	-20	1
5	156	0.3	0.7	27	-49	-3	-49	1
5	157	0.3	0.9	34	-47	49	19	2
5	158	0.6	0.2	21	-46	28	-32	2
5	159	0.8	0.5	-12	-49	17	-21	2
5	160	0.2	0.8	8	-44	20	-47	2
5	161	0.1	0.4	30	-24	33	-28	2
5	162	0.9	0.2	5	-30	10	0	1
5	163	0.5	0.3	-17	-25	38	31	2
5	164	0.4	0.6	-8	-37	29	14	2
5	165	0.8	0.7	40	3	6	-32	1
5	166	0.5	0.7	-5	-38	40	1	2
5	167	0.4	0.4	-3	-5	3	-36	1
5	168	0.7	0.8	13	-36	46	-24	2
5	169	0.6	0.6	47	-10	8	-30	1
5	170	0.6	0.3	49	-30	-1	-3	1
5	171	0.4	0.8	8	-18	27	12	2
5	172	0.5	0.4	-11	-23	-3	-32	2
5	173	0.4	0.8	43	-44	19	-7	1
5	174	0.1	0.5	43	-2	16	-15	1
5	175	0.9	0.6	-3	-28	9	-44	2
5	176	0.4	0.7	-24	-28	7	-27	2
5	177	0.1	0.6	16	-9	-31	-46	2
5	178	0.8	0.7	43	27	46	-27	1
5	179	0.3	0.4	-10	-25	41	-9	2
5	180	0.8	0.1	36	-1	23	-6	1
5	181	0.8	0.1	25	24	8	-13	1
5	182	0.2	0.7	-14	-36	-25	-50	1
5	183	0.5	0.3	-9	-44	40	-6	2
5	184	0.5	0.2	35	26	-8	-36	1
5	185	0.4	0.7	-18	-34	4	-28	2
5	186	0.4	0.3	34	-49	-9	-16	1
5	187	0.4	0.6	23	-7	-10	-19	1
5	188	0.9	0.7	31	12	47	-37	1
5	189	0.9	0.8	4	-25	9	-7	1
5	190	0.2	0.1	19	-44	47	4	2
5	191	0.8	0.8	-4	-12	20	-22	2
5	192	0.2	0.1	15	-47	7	-40	2
5	193	0.8	0.7	17	9	31	-32	2
5	194	0.5	0.2	25	0	-35	-37	1
5	195	0.1	0.6	-3	-40	-9	-35	1
5	196	0.3	0.6	42	25	36	-2	2
5	197	0.2	0.7	-12	-13	44	-10	2
5	198	0.3	0.4	34	-2	4	-5	1
5	199	0.6	0.9	9	-43	-3	-25	1
5	200	0.1	0.7	25	-14	38	-18	2
5	201	0.7	0.9	-18	-32	25	-20	2
5	202	0.5	0.9	32	-39	41	-19	2
5	203	0.3	0.2	-26	-28	21	-5	2
5	204	0.2	0.2	48	6	35	-6	1
5	205	0.9	0.4	-13	-34	19	2	2
5	206	0.6	0.7	26	-26	11	-23	1
5	207	0.2	0.8	34	-19	4	-20	2
5	208	0.6	0.6	-10	-42	6	-30	2
5	209	0.3	0.9	-17	-34	-7	-10	2
5	210	0.2	0.2	8	-30	27	23	2
5	211	0.5	0.3	33	4	1	-36	1
5	212	0.1	0.7	-14	-34	-4	-26	2
5	213	0.1	0.5	-26	-27	35	-37	2
5	214	0.1	0.7	46	-50	42	0	2
5	215	0.3	0.4	23	-50	13	-3	2
5	216	0.1	0.6	28	-14	39	37	2
5	217	0.2	0.8	9	-11	15	5	2
5	218	0.2	0.5	-29	-44	12	-10	2
5	219	0.4	0.6	-31	-40	-5	-40	2
5	220	0.2	0.5	44	-22	36	-29	2
5	221	0.7	0.5	11	2	14	1	1
5	222	0.9	0.8	18	-22	26	-12	2
5	223	0.8	0.7	-11	-35	14	-11	2
5	224	0.6	0.4	2	-46	36	27	1
5	225	0.5	0.3	-42	-50	24	13	2
5	226	0.1	0.6	48	-36	31	-27	2
5	227	0.4	0.4	49	-11	-35	-49	1
5	228	0.4	0.2	45	25	44	42	2
5	229	0.3	0.5	-7	-36	12	3	2
5	230	0.6	0.6	-4	-23	45	38	2
5	231	0.5	0.5	33	-46	-15	-21	1
5	232	0.6	0.6	-1	-20	-4	-30	2
5	233	0.4	0.7	41	-14	24	-23	2
5	234	0.9	0.7	-30	-48	29	18	2
5	235	0.7	0.6	-12	-22	13	-35	2
5	236	0.7	0.7	-10	-31	48	-10	2
5	237	0.6	0.3	37	20	-39	-47	1
5	238	0.1	0.4	-6	-14	16	-32	2
5	239	0.5	0.9	45	15	11	-13	1
5	240	0.2	0.3	-20	-32	44	-19	2
5	241	0.4	0.6	49	-44	17	-25	2
5	242	0.6	0.2	27	-46	-9	-32	1
5	243	0.1	0.5	-2	-19	26	-12	2
5	244	0.4	0.9	35	3	50	-36	2
5	245	0.7	0.7	-22	-33	4	-28	2
5	246	0.3	0.1	9	-43	49	-38	1
5	247	0.7	0.1	3	-45	49	-11	1
5	248	0.6	0.2	48	32	35	-39	1
5	249	0.8	0.3	-18	-49	28	24	2
5	250	0.1	0.6	40	-35	-11	-22	2
5	251	0.3	0.4	3	-46	20	13	2
5	252	0.4	0.8	-11	-36	-25	-26	2
5	253	0.9	0.1	34	-28	30	0	1
5	254	0.2	0.4	41	-3	39	-20	2
5	255	0.4	0.4	-35	-49	-9	-31	1
5	256	0.2	0.8	27	20	23	6	2
5	257	0.8	0.3	-1	-44	-43	-49	1
5	258	0.5	0.1	42	24	44	-26	1
5	259	0.4	0.9	50	20	49	25	1
5	260	0.6	0.6	47	38	-9	-24	1
5	261	0.5	0.4	23	-33	35	-37	2
5	262	0.5	0.8	23	-15	-1	-48	1
5	263	0.1	0.8	-14	-47	17	-39	2
5	264	0.4	0.4	33	-12	20	-23	1
5	265	0.6	0.5	49	10	47	43	1
5	266	0.4	0.8	23	-2	21	-35	1
5	267	0.3	0.8	-20	-36	16	-23	2
5	268	0.6	0.7	37	34	47	-26	1
5	269	0.2	0.4	14	-2	42	14	2
5	270	0.6	0.6	10	-42	-28	-48	1
5	271	0.2	0.7	43	-27	-1	-38	1
5	272	0.6	0.3	40	-41	-3	-47	1
5	273	0.1	0.7	-7	-35	41	39	2
5	274	0.5	0.1	13	-7	-22	-40	1
5	275	0.8	0.1	20	-19	0	-17	1
5	276	0.6	0.4	34	22	22	-6	1
5	277	0.3	0.9	46	-20	23	3	2
5	278	0.4	0.3	20	-12	11	10	1
5	279	0.5	0.1	35	28	37	28	1
5	280	0.3	0.8	16	-30	14	-4	2
5	281	0.9	0.9	13	-43	-6	-28	1
5	282	0.4	0.8	0	-17	-5	-49	2
5	283	0.5	0.3	-21	-47	32	-5	2
5	284	0.1	0.6	47	25	3	-48	1
5	285	0.6	0.3	7	-42	-5	-47	2
5	286	0.2	0.9	44	34	-22	-33	1
5	287	0.3	0.5	48	-19	17	-23	1
5	288	0.6	0.9	-12	-24	45	40	2
5	289	0.1	0.1	46	21	33	-22	1
5	290	0.2	0.8	33	-16	-15	-28	1
5	291	0.5	0.1	20	-19	36	11	2
5	292	0.5	0.8	6	-5	10	-2	2
5	293	0.6	0.1	6	-3	44	11	2
5	294	0.8	0.8	29	-21	2	-25	1
5	295	0.4	0.6	48	-29	18	-18	1
5	296	0.7	0.5	46	-12	16	-25	1
5	297	0.9	0.1	42	18	-34	-48	1
5	298	0.9	0.7	-36	-39	19	-2	2
5	299	0.8	0.6	41	10	30	-50	1
5	300	0.3	0.1	49	-20	47	26	2
6	1	0.8	0.6	43	-30	11	3	1
6	2	0.2	0.6	8	2	29	7	2
6	3	0.8	0.4	-18	-50	21	8	2
6	4	0.7	0.1	-12	-24	34	-39	1
6	5	0.9	0.4	49	-9	1	-38	1
6	6	0.9	0.7	28	-12	33	-41	1
6	7	0.5	0.1	30	22	40	28	2
6	8	0.5	0.6	-26	-28	1	-1	2
6	9	0.5	0.7	15	7	23	-25	2
6	10	0.1	0.8	43	18	-13	-22	1
6	11	0.7	0.8	-2	-35	28	1	2
6	12	0.4	0.6	21	-20	36	11	2
6	13	0.7	0.9	-39	-40	-11	-43	2
6	14	0.5	0.3	1	-41	45	16	2
6	15	0.6	0.7	8	-34	30	-43	2
6	16	0.6	0.2	8	-43	18	-50	1
6	17	0.9	0.2	21	-39	27	-37	1
6	18	0.8	0.1	-18	-41	46	16	2
6	19	0.1	0.2	3	-17	15	-30	1
6	20	0.3	0.8	7	-39	4	-38	2
6	21	0.9	0.5	41	-11	-41	-43	1
6	22	0.3	0.8	-2	-50	1	-4	2
6	23	0.2	0.3	48	0	34	9	2
6	24	0.8	0.1	-29	-41	47	10	2
6	25	0.1	0.9	21	-9	-23	-35	1
6	26	0.4	0.9	-36	-39	25	-17	2
6	27	0.1	0.6	50	13	-1	-20	1
6	28	0.3	0.6	35	16	50	8	2
6	29	0.8	0.3	48	-40	43	-39	1
6	30	0.4	0.7	-6	-16	45	22	2
6	31	0.7	0.9	28	1	33	-16	2
6	32	0.4	0.6	30	-22	33	20	2
6	33	0.6	0.1	47	-14	-2	-47	1
6	34	0.1	0.5	16	-16	46	5	2
6	35	0.4	0.2	43	27	-9	-27	1
6	36	0.4	0.2	-1	-17	6	-35	1
6	37	0.3	0.3	19	9	19	-41	1
6	38	0.6	0.7	50	-23	-9	-22	1
6	39	0.8	0.4	-16	-46	-34	-46	1
6	40	0.7	0.3	35	23	49	-1	1
6	41	0.3	0.2	27	13	5	-29	1
6	42	0.6	0.7	44	2	15	-18	1
6	43	0.5	0.5	31	10	-10	-38	1
6	44	0.2	0.4	45	1	16	-11	1
6	45	0.2	0.6	-40	-43	-4	-36	2
6	46	0.3	0.2	20	-20	20	-46	1
6	47	0.6	0.4	24	17	44	-9	1
6	48	0.3	0.6	35	0	45	-24	2
6	49	0.6	0.2	15	-3	23	-26	1
6	50	0.8	0.8	31	10	34	32	2
6	51	0.4	0.5	37	-40	8	-36	2
6	52	0.3	0.5	13	-42	28	-6	2
6	53	0.3	0.1	9	4	26	-38	1
6	54	0.4	0.6	35	-50	42	35	2
6	55	0.3	0.7	1	-44	36	30	2
6	56	0.5	0.3	12	-18	-14	-46	1
6	57	0.4	0.2	32	-21	44	8	2
6	58	0.8	0.8	6	-22	44	15	2
6	59	0.7	0.6	-8	-30	-8	-25	1
6	60	0.5	0.8	18	15	-6	-7	1
6	61	0.3	0.4	-31	-42	39	20	2
6	62	0.1	0.3	33	6	22	-40	1
6	63	0.2	0.6	26	-7	31	-42	2
6	64	0.1	0.5	22	-10	41	-5	2
6	65	0.4	0.2	6	-6	33	27	2
6	66	0.3	0.8	29	-4	48	-37	2
6	67	0.5	0.4	-22	-29	8	-36	2
6	68	0.7	0.7	1	-13	10	-11	2
6	69	0.1	0.2	-11	-25	15	-28	2
6	70	0.4	0.1	27	7	11	1	1
6	71	0.7	0.5	-11	-35	0	-7	2
6	72	0.9	0.2	50	32	-6	-25	1
6	73	0.2	0.2	-11	-23	34	-27	2
6	74	0.7	0.6	30	-15	44	-37	1
6	75	0.4	0.5	31	22	13	0	1
6	76	0.6	0.6	44	-3	38	36	2
6	77	0.5	0.5	8	2	38	-7	2
6	78	0.3	0.2	-11	-30	18	-21	2
6	79	0.7	0.4	-37	-38	-21	-48	1
6	80	0.5	0.8	24	-33	38	32	2
6	81	0.7	0.5	33	6	31	12	1
6	82	0.9	0.8	39	-16	40	-35	1
6	83	0.2	0.7	35	6	-35	-46	1
6	84	0.8	0.3	18	-45	-16	-17	1
6	85	0.8	0.9	41	-45	45	3	2
6	86	0.4	0.2	38	28	21	-10	1
6	87	0.5	0.6	-17	-43	6	-8	2
6	88	0.7	0.3	43	-12	48	19	2
6	89	0.2	0.9	39	15	37	-26	2
6	90	0.5	0.9	17	-20	-11	-48	1
6	91	0.3	0.6	-6	-13	36	-21	2
6	92	0.6	0.2	12	-49	14	-4	1
6	93	0.8	0.6	30	20	18	-47	1
6	94	0.1	0.2	7	-10	29	-46	1
6	95	0.8	0.2	4	-16	-7	-9	1
6	96	0.6	0.7	22	-38	-8	-19	1
6	97	0.1	0.8	18	-13	-26	-45	1
6	98	0.3	0.3	-34	-38	22	-38	2
6	99	0.1	0.9	32	-24	-25	-34	1
6	100	0.3	0.5	16	-23	20	-11	2
6	101	0.6	0.6	38	-36	-13	-24	1
6	102	0.9	0.5	-6	-20	-27	-42	1
6	103	0.4	0.5	1	-24	34	-18	2
6	104	0.8	0.4	44	29	-3	-37	1
6	105	0.2	0.8	49	-33	50	42	2
6	106	0.4	0.9	2	-25	36	-8	2
6	107	0.3	0.8	35	-40	22	-44	2
6	108	0.8	0.1	27	-50	-34	-40	1
6	109	0.3	0.4	45	-49	21	10	2
6	110	0.5	0.6	20	-7	-34	-45	1
6	111	0.3	0.9	-5	-21	35	33	2
6	112	0.6	0.6	41	-11	-20	-35	1
6	113	0.3	0.5	34	-43	-8	-16	1
6	114	0.6	0.2	28	-36	33	-4	1
6	115	0.9	0.4	49	-21	30	-11	1
6	116	0.3	0.9	9	-23	28	-18	2
6	117	0.3	0.9	31	20	4	-22	1
6	118	0.3	0.1	31	10	-35	-44	1
6	119	0.2	0.8	10	1	27	-2	2
6	120	0.7	0.4	29	-29	5	-33	1
6	121	0.6	0.9	4	-47	40	26	2
6	122	0.1	0.9	8	-26	-22	-30	1
6	123	0.2	0.3	26	-29	26	24	2
6	124	0.2	0.4	41	-20	-18	-30	2
6	125	0.7	0.1	6	-7	6	-3	1
6	126	0.7	0.1	50	17	33	31	1
6	127	0.5	0.9	15	-7	22	-17	2
6	128	0.2	0.2	48	30	4	-13	1
6	129	0.6	0.7	37	-39	32	-39	1
6	130	0.6	0.7	28	-26	49	47	2
6	131	0.7	0.5	46	-11	18	-38	1
6	132	0.9	0.4	45	-7	47	42	2
6	133	0.2	0.6	25	21	-21	-33	1
6	134	0.1	0.6	37	-44	-13	-26	2
6	135	0.5	0.5	41	33	27	-20	1
6	136	0.7	0.9	14	2	35	28	1
6	137	0.2	0.2	2	-26	23	2	2
6	138	0.6	0.1	32	10	-12	-46	1
6	139	0.1	0.1	-29	-43	39	4	2
6	140	0.7	0.5	42	20	-37	-39	1
6	141	0.2	0.3	17	4	22	3	1
6	142	0.4	0.6	-12	-30	22	11	2
6	143	0.8	0.9	41	24	35	-17	1
6	144	0.6	0.7	-5	-38	36	24	2
6	145	0.6	0.8	-37	-38	34	15	2
6	146	0.6	0.8	6	-8	-7	-15	1
6	147	0.8	0.5	39	33	45	-33	1
6	148	0.8	0.7	22	-6	4	-14	1
6	149	0.7	0.9	-19	-22	-33	-41	1
6	150	0.6	0.6	39	-25	-18	-27	1
6	151	0.7	0.3	-11	-24	-5	-33	1
6	152	0.6	0.1	45	25	28	22	1
6	153	0.3	0.9	28	-2	-2	-37	1
6	154	0.9	0.8	10	-44	20	9	1
6	155	0.2	0.9	50	-16	13	-21	2
6	156	0.8	0.4	-14	-33	-42	-44	2
6	157	0.8	0.2	31	-10	0	-7	1
6	158	0.9	0.9	11	-38	36	-39	2
6	159	0.3	0.5	15	-4	-16	-20	1
6	160	0.3	0.5	16	-43	34	-43	2
6	161	0.9	0.6	-30	-41	-31	-36	1
6	162	0.1	0.2	-18	-49	18	5	2
6	163	0.1	0.1	25	-19	35	-49	1
6	164	0.2	0.1	14	4	-7	-30	1
6	165	0.5	0.9	42	21	29	-19	1
6	166	0.2	0.8	17	1	-1	-16	1
6	167	0.7	0.3	-17	-31	44	-37	2
6	168	0.9	0.4	0	-10	20	13	2
6	169	0.4	0.9	16	-4	22	-44	2
6	170	0.1	0.9	25	-40	-17	-33	2
6	171	0.3	0.5	-7	-48	21	-24	2
6	172	0.7	0.1	-16	-31	34	7	2
6	173	0.9	0.2	22	-12	28	24	1
6	174	0.1	0.5	28	3	27	-50	2
6	175	0.9	0.7	-13	-38	-17	-18	2
6	176	0.9	0.3	3	-41	37	-1	2
6	177	0.6	0.2	-16	-36	-2	-37	2
6	178	0.9	0.5	30	26	41	-40	1
6	179	0.3	0.7	24	-18	-3	-24	1
6	180	0.1	0.2	-16	-41	39	17	2
6	181	0.7	0.7	40	36	-37	-46	1
6	182	0.2	0.4	27	-46	41	8	2
6	183	0.7	0.3	27	2	1	-16	1
6	184	0.1	0.9	49	-36	10	-21	2
6	185	0.5	0.2	22	11	30	-8	1
6	186	0.8	0.8	0	-7	24	-3	2
6	187	0.5	0.5	-7	-11	36	6	2
6	188	0.4	0.4	39	14	-27	-44	1
6	189	0.3	0.2	36	-14	21	6	2
6	190	0.7	0.8	4	-25	46	17	2
6	191	0.1	0.8	20	-10	25	-26	2
6	192	0.6	0.6	12	0	11	-46	1
6	193	0.1	0.5	43	23	32	-28	1
6	194	0.6	0.9	-3	-18	47	38	2
6	195	0.9	0.8	-18	-36	-14	-42	2
6	196	0.8	0.4	10	-3	-9	-36	1
6	197	0.2	0.8	3	-31	29	14	2
6	198	0.6	0.1	11	-23	-25	-34	1
6	199	0.7	0.5	39	-9	46	19	2
6	200	0.8	0.6	44	-50	13	6	1
6	201	0.2	0.9	27	-46	-8	-48	1
6	202	0.2	0.7	50	-32	-28	-43	1
6	203	0.8	0.5	32	-41	-1	-18	1
6	204	0.6	0.5	-27	-33	38	-38	2
6	205	0.8	0.8	31	-23	-35	-37	1
6	206	0.5	0.9	-37	-38	10	-24	2
6	207	0.3	0.6	11	10	33	-20	1
6	208	0.3	0.5	-21	-22	11	-17	2
6	209	0.7	0.7	29	12	46	-34	1
6	210	0.7	0.5	17	-30	26	-3	1
6	211	0.5	0.2	8	-15	1	-4	1
6	212	0.5	0.7	35	20	36	25	2
6	213	0.1	0.4	-25	-44	-8	-28	2
6	214	0.8	0.9	46	-17	-6	-12	1
6	215	0.3	0.4	-5	-40	-24	-36	1
6	216	0.2	0.7	27	13	50	-50	2
6	217	0.9	0.8	49	39	48	-2	2
6	218	0.6	0.2	-15	-41	-7	-9	1
6	219	0.5	0.2	49	22	38	-50	1
6	220	0.3	0.7	35	17	48	12	2
6	221	0.3	0.9	15	-44	35	-11	2
6	222	0.1	0.9	27	7	46	25	2
6	223	0.8	0.4	38	-46	15	-32	1
6	224	0.6	0.7	27	-10	44	21	2
6	225	0.2	0.7	10	-49	41	-10	2
6	226	0.7	0.3	29	19	28	-28	1
6	227	0.3	0.6	49	-6	26	-14	2
6	228	0.7	0.4	20	-29	-5	-17	1
6	229	0.8	0.9	20	-15	5	-1	1
6	230	0.9	0.6	-19	-45	32	-6	2
6	231	0.5	0.6	2	-29	-15	-48	1
6	232	0.1	0.1	45	-40	7	-4	2
6	233	0.3	0.1	-8	-39	30	-38	2
6	234	0.8	0.8	37	1	-28	-32	1
6	235	0.7	0.7	0	-26	35	-14	2
6	236	0.7	0.1	-6	-19	10	-45	1
6	237	0.5	0.7	42	-44	11	-17	2
6	238	0.2	0.7	40	-33	8	-18	2
6	239	0.8	0.2	25	-23	48	43	2
6	240	0.7	0.2	10	1	20	5	1
6	241	0.4	0.5	22	-39	-8	-19	2
6	242	0.2	0.5	42	-45	17	-17	2
6	243	0.9	0.5	-20	-39	48	-34	2
6	244	0.8	0.7	-25	-26	11	-26	2
6	245	0.5	0.3	20	-15	36	-16	1
6	246	0.8	0.1	-18	-33	15	-1	2
6	247	0.3	0.4	-3	-21	30	-8	2
6	248	0.9	0.8	-4	-25	49	-24	2
6	249	0.1	0.8	47	-13	33	-45	2
6	250	0.6	0.6	-34	-37	2	-6	2
6	251	0.8	0.3	0	-5	29	-1	2
6	252	0.3	0.7	30	-25	45	-8	2
6	253	0.7	0.1	14	-24	1	-3	1
6	254	0.1	0.7	15	-10	23	-11	2
6	255	0.1	0.7	-6	-48	-9	-30	2
6	256	0.9	0.5	38	-8	-25	-39	1
6	257	0.7	0.9	-32	-39	2	0	2
6	258	0.2	0.9	-1	-45	14	5	2
6	259	0.7	0.7	-3	-36	41	-8	2
6	260	0.3	0.9	-2	-26	47	-11	2
6	261	0.8	0.6	47	8	45	12	2
6	262	0.9	0.1	-39	-44	43	37	2
6	263	0.3	0.7	-3	-28	-18	-33	1
6	264	0.3	0.5	23	13	14	-18	1
6	265	0.2	0.4	11	6	35	-21	2
6	266	0.3	0.2	50	19	-17	-47	1
6	267	0.1	0.3	49	37	16	8	1
6	268	0.5	0.1	-7	-23	-7	-34	1
6	269	0.3	0.6	25	-11	50	35	2
6	270	0.2	0.3	44	41	37	-23	1
6	271	0.8	0.6	39	-18	2	-45	1
6	272	0.3	0.5	18	-10	40	-15	2
6	273	0.6	0.8	23	-37	2	1	1
6	274	0.5	0.2	17	-50	1	-22	1
6	275	0.9	0.2	20	8	-1	-12	1
6	276	0.8	0.8	40	-32	44	1	2
6	277	0.7	0.4	36	-50	-17	-22	1
6	278	0.8	0.8	-27	-41	30	29	2
6	279	0.5	0.9	19	11	-3	-34	1
6	280	0.6	0.3	2	-38	-11	-20	1
6	281	0.8	0.5	-3	-30	23	-6	2
6	282	0.7	0.9	-4	-19	33	-8	2
6	283	0.3	0.6	4	2	26	-37	1
6	284	0.3	0.2	-33	-36	3	-13	2
6	285	0.9	0.3	-31	-32	-15	-21	2
6	286	0.9	0.8	35	-29	27	-42	1
6	287	0.2	0.7	44	34	-3	-26	1
6	288	0.3	0.4	-27	-39	-33	-50	1
6	289	0.1	0.6	20	13	14	9	1
6	290	0.8	0.4	40	-19	-1	-10	1
6	291	0.3	0.8	44	5	-6	-37	1
6	292	0.1	0.9	42	37	33	-46	2
6	293	0.2	0.9	7	-25	-15	-24	2
6	294	0.9	0.1	39	-46	-3	-4	1
6	295	0.5	0.9	-21	-24	-27	-36	1
6	296	0.7	0.3	37	-22	-12	-31	1
6	297	0.9	0.9	4	-50	43	-13	2
6	298	0.2	0.7	40	1	50	23	2
6	299	0.7	0.9	6	-11	-5	-47	1
6	300	0.1	0.4	-26	-28	48	-35	2
7	1	0.5	0.3	37	7	-2	-6	1
7	2	0.7	0.6	-10	-35	16	-38	2
7	3	0.5	0.4	40	14	48	-7	1
7	4	0.6	0.9	20	-27	22	-1	2
7	5	0.3	0.5	46	-2	-5	-30	1
7	6	0.8	0.3	-1	-6	17	-18	2
7	7	0.5	0.5	39	23	-19	-47	1
7	8	0.3	0.2	40	-16	-17	-40	1
7	9	0.5	0.1	6	-24	50	-3	2
7	10	0.7	0.1	35	6	-5	-42	1
7	11	0.3	0.3	41	19	49	-44	1
7	12	0.4	0.7	-16	-48	24	-24	2
7	13	0.5	0.5	18	-9	37	15	2
7	14	0.7	0.7	42	21	25	-50	1
7	15	0.8	0.9	16	-35	-3	-15	1
7	16	0.2	0.7	45	41	32	15	1
7	17	0.3	0.4	39	-4	45	38	2
7	18	0.8	0.4	-19	-34	15	-39	2
7	19	0.8	0.7	27	-21	-15	-30	1
7	20	0.6	0.6	38	-32	47	-49	2
7	21	0.5	0.1	6	-38	7	-43	1
7	22	0.8	0.9	36	18	44	24	2
7	23	0.7	0.3	36	-16	37	-29	1
7	24	0.6	0.9	33	27	45	-32	1
7	25	0.1	0.4	-19	-41	13	-13	2
7	26	0.9	0.3	8	-25	32	-20	1
7	27	0.9	0.2	8	-39	44	-38	1
7	28	0.4	0.3	20	-46	10	-37	2
7	29	0.9	0.2	39	24	17	0	1
7	30	0.7	0.1	39	-22	3	-40	1
7	31	0.7	0.5	-22	-25	49	21	2
7	32	0.8	0.9	-2	-41	-1	-26	2
7	33	0.3	0.9	40	-25	17	-28	2
7	34	0.9	0.4	43	23	21	-31	1
7	35	0.3	0.2	-8	-34	2	-44	2
7	36	0.1	0.6	27	-48	39	21	2
7	37	0.8	0.9	6	-7	-42	-46	1
7	38	0.8	0.8	-10	-35	45	14	2
7	39	0.2	0.7	27	11	36	-42	2
7	40	0.1	0.8	14	-19	-2	-20	2
7	41	0.9	0.3	33	27	19	7	1
7	42	0.2	0.8	15	-3	38	-7	2
7	43	0.3	0.5	48	4	23	-5	1
7	44	0.7	0.8	13	10	10	-23	1
7	45	0.4	0.9	33	0	32	14	2
7	46	0.2	0.6	43	-26	50	-7	2
7	47	0.9	0.2	43	35	-24	-44	1
7	48	0.8	0.4	30	21	20	-12	1
7	49	0.5	0.2	6	2	11	-3	1
7	50	0.3	0.8	2	-17	19	-50	2
7	51	0.5	0.3	-28	-43	-17	-35	2
7	52	0.9	0.7	36	13	27	10	1
7	53	0.4	0.8	44	-4	27	-42	2
7	54	0.9	0.3	2	-9	-23	-27	1
7	55	0.9	0.5	18	-2	38	-50	1
7	56	0.1	0.2	48	47	16	-18	1
7	57	0.5	0.4	6	-2	26	15	2
7	58	0.4	0.1	-16	-48	-3	-23	2
7	59	0.1	0.9	12	-41	17	-25	2
7	60	0.4	0.1	-1	-15	33	1	2
7	61	0.2	0.1	-14	-39	34	-30	2
7	62	0.3	0.5	-3	-11	29	-41	2
7	63	0.9	0.3	41	17	-11	-13	1
7	64	0.3	0.6	21	15	49	-44	1
7	65	0.3	0.7	46	-1	42	39	2
7	66	0.3	0.1	-11	-37	13	-49	2
7	67	0.4	0.6	33	-9	41	-50	2
7	68	0.5	0.1	16	-10	40	-43	1
7	69	0.7	0.6	20	10	-6	-47	1
7	70	0.7	0.6	21	-18	42	40	2
7	71	0.8	0.8	-12	-28	-12	-43	1
7	72	0.7	0.5	28	-48	0	-41	1
7	73	0.3	0.1	36	-43	29	-19	2
7	74	0.9	0.4	31	-15	12	-45	1
7	75	0.8	0.3	-8	-25	48	47	2
7	76	0.4	0.5	32	-27	41	23	2
7	77	0.8	0.9	45	-36	20	8	1
7	78	0.6	0.3	39	30	44	16	1
7	79	0.7	0.6	4	-39	33	-48	2
7	80	0.9	0.3	50	28	38	-27	1
7	81	0.9	0.2	12	-25	-1	-26	1
7	82	0.1	0.2	28	-6	4	-2	2
7	83	0.7	0.5	29	-37	40	14	2
7	84	0.6	0.9	16	-43	10	-3	2
7	85	0.2	0.8	21	-24	31	-24	2
7	86	0.3	0.9	50	-9	-3	-24	1
7	87	0.1	0.2	4	-12	44	5	2
7	88	0.9	0.8	47	-42	10	-16	1
7	89	0.1	0.7	29	-24	-27	-43	1
7	90	0.8	0.6	45	37	37	-2	1
7	91	0.8	0.5	37	-9	49	-36	1
7	92	0.2	0.6	10	-8	-45	-47	1
7	93	0.9	0.4	37	36	12	-49	1
7	94	0.9	0.3	17	-14	-14	-16	1
7	95	0.8	0.1	33	30	-24	-46	1
7	96	0.7	0.5	32	-34	15	-16	1
7	97	0.8	0.4	30	19	43	-18	1
7	98	0.8	0.3	38	-15	-7	-11	1
7	99	0.1	0.4	35	-39	-17	-25	2
7	100	0.8	0.5	34	25	-10	-11	1
7	101	0.4	0.6	-1	-26	34	-34	2
7	102	0.7	0.7	30	-21	4	-11	1
7	103	0.5	0.1	13	-33	3	-45	1
7	104	0.6	0.2	34	-23	35	-24	1
7	105	0.2	0.3	24	-14	-6	-47	1
7	106	0.5	0.2	28	-34	50	-19	1
7	107	0.7	0.7	35	26	-7	-16	1
7	108	0.5	0.5	34	13	17	-10	1
7	109	0.1	0.3	-30	-49	10	-44	2
7	110	0.9	0.7	23	1	44	22	2
7	111	0.6	0.9	50	6	-29	-36	1
7	112	0.1	0.9	24	-5	32	5	2
7	113	0.4	0.3	31	3	1	-50	1
7	114	0.4	0.3	0	-37	-16	-32	1
7	115	0.5	0.8	34	4	31	-31	2
7	116	0.2	0.1	50	-45	50	-49	1
7	117	0.2	0.1	22	14	33	-36	1
7	118	0.2	0.8	11	-26	-3	-25	2
7	119	0.8	0.8	23	-1	32	5	2
7	120	0.7	0.4	-24	-47	28	-32	2
7	121	0.9	0.4	-16	-18	-1	-33	2
7	122	0.6	0.2	-14	-42	36	-3	2
7	123	0.7	0.4	49	19	-12	-37	1
7	124	0.7	0.6	-3	-22	24	5	2
7	125	0.8	0.6	15	-16	22	-37	1
7	126	0.4	0.3	40	22	32	26	2
7	127	0.4	0.8	20	-24	-33	-37	1
7	128	0.5	0.5	48	-35	-17	-50	1
7	129	0.1	0.5	8	0	44	23	2
7	130	0.8	0.8	14	-33	48	-30	2
7	131	0.4	0.7	31	-35	-1	-50	1
7	132	0.8	0.9	-8	-49	-14	-24	1
7	133	0.9	0.5	42	-11	-22	-41	1
7	134	0.7	0.6	29	-34	25	12	2
7	135	0.2	0.4	35	-24	37	15	2
7	136	0.6	0.3	48	12	21	18	1
7	137	0.2	0.9	-22	-34	12	-11	2
7	138	0.3	0.8	48	-10	7	-23	2
7	139	0.4	0.2	2	-19	38	-8	2
7	140	0.7	0.9	24	-8	41	-26	2
7	141	0.7	0.3	-3	-12	-3	-5	2
7	142	0.6	0.2	40	9	40	-38	1
7	143	0.7	0.2	3	-15	46	12	2
7	144	0.4	0.8	4	-27	46	-40	2
7	145	0.8	0.4	24	-7	-24	-29	1
7	146	0.8	0.3	32	-1	41	-29	1
7	147	0.9	0.4	-3	-34	35	3	2
7	148	0.9	0.3	40	-27	29	-11	1
7	149	0.2	0.9	-3	-35	-13	-49	2
7	150	0.2	0.8	37	28	25	-13	1
7	151	0.1	0.2	-15	-36	50	25	2
7	152	0.3	0.5	-7	-30	4	-25	2
7	153	0.6	0.7	21	10	13	8	1
7	154	0.3	0.4	2	-22	41	-31	2
7	155	0.5	0.1	0	-47	29	-45	1
7	156	0.3	0.5	23	6	14	-25	1
7	157	0.2	0.3	-24	-27	6	-5	2
7	158	0.2	0.6	14	-1	43	-8	2
7	159	0.6	0.2	-40	-41	30	17	2
7	160	0.7	0.7	7	-50	9	-34	1
7	161	0.9	0.4	37	-41	15	-1	1
7	162	0.9	0.8	26	19	22	-45	1
7	163	0.1	0.2	10	-31	30	13	2
7	164	0.1	0.6	-31	-48	1	-36	2
7	165	0.3	0.4	32	1	-7	-8	1
7	166	0.3	0.1	-6	-27	24	10	2
7	167	0.7	0.5	5	2	48	-15	2
7	168	0.6	0.6	13	-23	14	-9	2
7	169	0.2	0.9	13	-41	31	2	2
7	170	0.2	0.5	34	22	10	-49	1
7	171	0.2	0.8	29	1	3	-35	1
7	172	0.4	0.6	26	-4	49	-23	2
7	173	0.3	0.3	35	-40	-33	-34	1
7	174	0.7	0.5	38	-41	3	-7	1
7	175	0.7	0.1	22	-49	44	30	2
7	176	0.3	0.4	33	-47	31	30	2
7	177	0.3	0.2	28	-36	10	-44	1
7	178	0.9	0.1	-23	-29	7	-26	1
7	179	0.1	0.7	-20	-32	19	17	2
7	180	0.3	0.7	8	-41	4	-11	2
7	181	0.7	0.2	42	-50	40	5	2
7	182	0.8	0.5	-7	-38	10	3	2
7	183	0.9	0.8	39	-29	8	-29	1
7	184	0.1	0.3	6	-37	20	-3	2
7	185	0.7	0.7	21	-22	36	-42	2
7	186	0.8	0.2	42	-16	29	16	1
7	187	0.5	0.6	36	-43	35	6	2
7	188	0.6	0.1	14	2	50	18	2
7	189	0.1	0.2	45	-22	38	-49	2
7	190	0.4	0.8	-23	-37	7	-32	2
7	191	0.5	0.7	12	-25	20	-32	2
7	192	0.4	0.7	10	-5	28	10	2
7	193	0.3	0.9	22	19	32	23	2
7	194	0.7	0.9	-3	-34	50	38	2
7	195	0.7	0.1	-16	-47	19	11	2
7	196	0.5	0.4	-21	-31	-12	-50	1
7	197	0.4	0.1	39	30	37	-15	1
7	198	0.6	0.3	-14	-31	30	-17	2
7	199	0.9	0.4	25	14	44	-16	1
7	200	0.9	0.6	-4	-17	21	-28	2
7	201	0.5	0.9	1	-20	14	-3	2
7	202	0.6	0.7	46	-4	-21	-27	1
7	203	0.5	0.9	48	24	0	-37	1
7	204	0.2	0.1	36	35	37	-44	1
7	205	0.7	0.5	32	22	17	7	1
7	206	0.9	0.8	38	-49	42	36	2
7	207	0.9	0.9	-8	-35	20	-33	2
7	208	0.2	0.9	23	-33	47	-12	2
7	209	0.5	0.7	41	30	-1	-36	1
7	210	0.1	0.7	48	-24	29	9	2
7	211	0.1	0.1	-15	-21	10	-47	1
7	212	0.3	0.5	38	35	-17	-32	1
7	213	0.6	0.6	13	-13	19	-49	1
7	214	0.5	0.7	7	-15	24	-20	2
7	215	0.5	0.1	15	-39	22	21	2
7	216	0.4	0.3	49	-3	41	-5	1
7	217	0.3	0.4	23	-27	-2	-33	1
7	218	0.5	0.8	15	-16	33	-34	2
7	219	0.9	0.9	-21	-26	13	-24	2
7	220	0.6	0.4	48	16	-6	-21	1
7	221	0.3	0.1	45	-25	-16	-44	1
7	222	0.5	0.9	-15	-43	29	-2	2
7	223	0.7	0.5	42	-45	-12	-34	1
7	224	0.8	0.5	39	6	32	24	2
7	225	0.7	0.3	-18	-49	-20	-32	2
7	226	0.5	0.6	-21	-32	10	7	2
7	227	0.3	0.4	8	-26	-30	-44	1
7	228	0.8	0.3	-6	-25	32	-14	2
7	229	0.3	0.9	0	-27	13	-22	2
7	230	0.5	0.1	40	39	41	-33	1
7	231	0.6	0.8	34	0	43	-49	2
7	232	0.7	0.5	-11	-19	9	-36	2
7	233	0.8	0.2	46	-45	27	20	1
7	234	0.2	0.2	14	-19	29	20	2
7	235	0.2	0.9	4	-35	-1	-18	2
7	236	0.5	0.1	-45	-49	23	-44	1
7	237	0.6	0.4	-36	-40	39	10	2
7	238	0.4	0.8	18	-10	-25	-47	1
7	239	0.8	0.9	45	2	30	13	1
7	240	0.7	0.5	-28	-44	-31	-45	2
7	241	0.3	0.9	30	10	-25	-27	1
7	242	0.3	0.5	33	-46	18	9	2
7	243	0.2	0.7	35	3	49	-40	2
7	244	0.1	0.4	28	-11	26	-49	1
7	245	0.3	0.2	-32	-33	35	24	2
7	246	0.5	0.3	25	-21	45	18	2
7	247	0.5	0.2	15	-6	0	-25	1
7	248	0.3	0.1	35	-36	-4	-14	2
7	249	0.8	0.6	42	4	-6	-36	1
7	250	0.6	0.8	29	-21	36	-15	2
7	251	0.4	0.8	49	21	30	20	1
7	252	0.8	0.7	8	-23	15	-43	2
7	253	0.7	0.6	33	14	20	9	1
7	254	0.5	0.5	14	-18	27	23	2
7	255	0.9	0.4	-25	-49	15	-16	2
7	256	0.7	0.5	19	3	35	-30	1
7	257	0.2	0.8	48	0	47	-40	2
7	258	0.1	0.1	42	-47	-14	-43	2
7	259	0.3	0.4	17	-15	45	-45	2
7	260	0.4	0.4	36	-33	7	-19	1
7	261	0.2	0.2	29	-18	-5	-10	2
7	262	0.2	0.7	21	-39	19	3	2
7	263	0.3	0.7	25	1	-8	-23	1
7	264	0.3	0.1	5	-10	11	1	2
7	265	0.3	0.3	17	6	41	-6	2
7	266	0.8	0.5	30	-23	36	31	2
7	267	0.9	0.8	-22	-31	31	-23	2
7	268	0.1	0.4	0	-43	39	14	2
7	269	0.1	0.5	21	-13	1	-19	2
7	270	0.2	0.6	23	-35	-17	-42	2
7	271	0.3	0.8	35	22	-12	-13	1
7	272	0.1	0.1	25	-28	37	-29	2
7	273	0.1	0.4	12	-8	48	-45	1
7	274	0.5	0.7	-8	-35	44	-29	2
7	275	0.7	0.1	46	-45	6	-46	1
7	276	0.9	0.6	17	-42	11	-13	1
7	277	0.4	0.4	26	-31	49	14	2
7	278	0.9	0.2	-23	-38	18	-43	2
7	279	0.2	0.2	21	-16	-2	-3	1
7	280	0.8	0.6	2	-25	45	17	2
7	281	0.6	0.9	33	-45	-6	-10	1
7	282	0.9	0.5	44	21	20	-34	1
7	283	0.7	0.1	3	2	-30	-37	1
7	284	0.5	0.2	29	-25	44	-16	1
7	285	0.7	0.2	13	1	34	33	2
7	286	0.4	0.1	3	-31	32	-8	2
7	287	0.1	0.7	3	-28	31	4	2
7	288	0.2	0.9	45	25	-7	-10	1
7	289	0.9	0.5	45	5	38	-32	1
7	290	0.1	0.5	-30	-41	-26	-42	1
7	291	0.1	0.2	35	-33	1	-37	2
7	292	0.6	0.6	27	-11	50	35	2
7	293	0.8	0.8	15	-6	31	-13	2
7	294	0.5	0.2	38	32	30	-17	1
7	295	0.9	0.7	29	-35	49	20	2
7	296	0.4	0.2	23	-47	-20	-37	1
7	297	0.7	0.2	40	10	10	0	1
7	298	0.8	0.3	-13	-48	47	35	2
7	299	0.5	0.1	-4	-31	29	-19	1
7	300	0.3	0.4	12	-44	28	1	2
8	1	0.3	0.4	49	10	22	-3	1
8	2	0.3	0.3	36	-15	15	0	2
8	3	0.1	0.5	23	-24	-6	-40	1
8	4	0.4	0.7	19	-40	35	16	2
8	5	0.5	0.8	6	-11	18	-39	1
8	6	0.1	0.5	26	-22	26	-44	2
8	7	0.6	0.8	35	-38	50	7	2
8	8	0.4	0.1	11	5	6	-7	1
8	9	0.8	0.5	11	4	-11	-30	1
8	10	0.2	0.9	12	-23	33	30	2
8	11	0.3	0.1	45	-6	22	21	2
8	12	0.4	0.5	5	-46	43	-42	2
8	13	0.7	0.2	-15	-23	23	10	2
8	14	0.4	0.4	0	-27	45	-4	2
8	15	0.6	0.2	-8	-15	24	-45	2
8	16	0.7	0.5	37	-14	8	-8	1
8	17	0.9	0.6	25	-16	14	-12	1
8	18	0.5	0.3	-25	-27	5	-43	2
8	19	0.2	0.8	14	4	32	30	2
8	20	0.6	0.2	21	-42	44	-49	1
8	21	0.3	0.5	29	22	49	15	2
8	22	0.7	0.2	-15	-29	22	-2	2
8	23	0.6	0.5	39	-36	34	20	2
8	24	0.5	0.3	32	-30	13	1	2
8	25	0.1	0.7	43	6	-15	-28	1
8	26	0.3	0.6	46	-41	4	-18	1
8	27	0.1	0.1	9	-21	7	-9	2
8	28	0.5	0.2	43	11	32	-46	1
8	29	0.1	0.3	24	0	-42	-45	1
8	30	0.3	0.4	40	26	47	-10	1
8	31	0.2	0.8	10	-32	-30	-44	1
8	32	0.3	0.6	47	0	19	16	2
8	33	0.9	0.1	-34	-48	25	17	2
8	34	0.1	0.5	4	-49	34	15	2
8	35	0.6	0.5	4	-11	-10	-37	2
8	36	0.7	0.2	-13	-42	-39	-45	1
8	37	0.7	0.6	1	-35	10	-27	2
8	38	0.2	0.3	-25	-40	40	-44	2
8	39	0.9	0.9	8	-14	-2	-13	1
8	40	0.4	0.1	49	19	20	-32	1
8	41	0.9	0.8	43	-10	37	34	1
8	42	0.7	0.6	27	-44	-4	-14	1
8	43	0.6	0.4	12	-44	-1	-29	1
8	44	0.5	0.5	44	41	-15	-22	1
8	45	0.3	0.8	9	-34	47	-23	2
8	46	0.5	0.8	14	8	3	-7	1
8	47	0.8	0.9	5	-2	29	19	2
8	48	0.7	0.8	41	12	-2	-9	1
8	49	0.8	0.6	-4	-17	13	-32	2
8	50	0.4	0.2	39	36	41	-38	1
8	51	0.1	0.3	46	-22	34	7	2
8	52	0.3	0.7	24	-41	3	-32	2
8	53	0.2	0.6	50	-17	24	-33	2
8	54	0.4	0.7	26	14	37	-21	1
8	55	0.3	0.6	32	13	16	-37	1
8	56	0.2	0.8	43	14	24	-46	1
8	57	0.1	0.5	7	-42	35	-17	2
8	58	0.1	0.6	29	2	-29	-44	1
8	59	0.3	0.2	12	-33	14	-21	1
8	60	0.4	0.3	31	8	31	-33	1
8	61	0.7	0.9	13	-31	17	5	2
8	62	0.8	0.2	31	20	6	4	1
8	63	0.9	0.8	-1	-27	31	-7	2
8	64	0.5	0.3	23	-29	27	-32	1
8	65	0.2	0.8	-25	-46	-18	-38	2
8	66	0.6	0.7	-3	-29	44	15	2
8	67	0.4	0.5	42	-28	9	-16	1
8	68	0.6	0.3	15	-39	49	-32	1
8	69	0.5	0.9	43	-2	48	22	2
8	70	0.1	0.4	21	-43	-19	-36	1
8	71	0.1	0.2	7	-31	42	-1	2
8	72	0.2	0.5	47	-7	31	30	2
8	73	0.4	0.4	31	-9	19	-7	1
8	74	0.4	0.9	32	12	-15	-36	1
8	75	0.1	0.1	-5	-28	30	-49	1
8	76	0.1	0.6	-28	-37	44	-41	2
8	77	0.4	0.5	-46	-50	-26	-47	1
8	78	0.1	0.5	28	-19	-23	-39	1
8	79	0.3	0.8	16	-22	-4	-10	1
8	80	0.7	0.1	26	21	3	-2	1
8	81	0.2	0.2	38	-40	-16	-17	1
8	82	0.3	0.5	-5	-19	32	-3	2
8	83	0.7	0.7	34	-9	42	-6	2
8	84	0.6	0.8	24	13	-16	-44	1
8	85	0.8	0.4	14	8	4	-37	1
8	86	0.6	0.5	23	-35	24	-7	2
8	87	0.5	0.9	2	-17	-3	-29	1
8	88	0.5	0.2	2	-35	19	-23	2
8	89	0.2	0.2	-3	-42	-12	-36	2
8	90	0.8	0.6	50	2	23	22	1
8	91	0.3	0.9	3	-8	-1	-2	1
8	92	0.7	0.6	-14	-33	41	-6	2
8	93	0.1	0.1	44	-36	-2	-27	2
8	94	0.4	0.8	17	-35	-10	-50	1
8	95	0.9	0.3	37	-6	42	1	1
8	96	0.2	0.5	3	-20	23	10	2
8	97	0.4	0.6	6	-40	20	-12	2
8	98	0.7	0.3	48	30	-21	-27	1
8	99	0.9	0.9	22	-48	8	-9	1
8	100	0.5	0.7	40	-48	9	-37	2
8	101	0.5	0.2	-42	-43	13	5	2
8	102	0.6	0.3	14	-46	24	-4	1
8	103	0.5	0.1	43	-48	18	4	2
8	104	0.5	0.8	-22	-45	42	-16	2
8	105	0.4	0.1	32	-6	12	-29	1
8	106	0.2	0.6	-4	-33	-2	-35	1
8	107	0.4	0.4	23	-4	50	29	2
8	108	0.9	0.4	46	-41	0	-33	1
8	109	0.2	0.5	44	-7	-3	-34	1
8	110	0.7	0.7	41	23	22	12	1
8	111	0.1	0.5	11	-4	14	5	2
8	112	0.7	0.9	34	31	32	14	1
8	113	0.4	0.1	-7	-28	12	-2	2
8	114	0.4	0.5	10	-35	23	-39	2
8	115	0.1	0.2	-18	-40	20	-20	2
8	116	0.1	0.6	27	-36	12	-4	2
8	117	0.9	0.3	40	15	-2	-31	1
8	118	0.9	0.8	-11	-35	25	-23	2
8	119	0.4	0.2	17	-31	38	-15	2
8	120	0.9	0.6	2	-22	26	-24	2
8	121	0.2	0.5	-22	-43	19	-47	2
8	122	0.8	0.5	43	39	27	-28	1
8	123	0.1	0.9	-4	-41	-9	-28	2
8	124	0.7	0.4	42	-42	47	-3	1
8	125	0.6	0.4	6	3	38	29	2
8	126	0.2	0.9	24	11	22	-32	2
8	127	0.3	0.8	45	0	49	27	2
8	128	0.9	0.2	20	-17	34	10	2
8	129	0.4	0.1	40	-39	24	-4	1
8	130	0.6	0.4	39	-24	49	-34	1
8	131	0.3	0.9	5	-8	-16	-40	1
8	132	0.9	0.6	-13	-38	33	-23	2
8	133	0.2	0.3	48	-8	-3	-35	1
8	134	0.8	0.4	5	-44	39	31	2
8	135	0.4	0.3	-1	-10	48	-18	2
8	136	0.3	0.1	28	9	12	5	1
8	137	0.7	0.6	33	-34	5	-2	1
8	138	0.7	0.4	5	-49	46	35	2
8	139	0.7	0.6	49	-44	13	-8	1
8	140	0.3	0.8	21	-37	24	-12	2
8	141	0.4	0.5	9	-1	-14	-21	1
8	142	0.7	0.4	38	-49	34	-4	1
8	143	0.5	0.3	26	-48	32	6	2
8	144	0.7	0.3	-4	-14	49	-17	2
8	145	0.9	0.1	10	-41	-11	-15	1
8	146	0.6	0.8	24	-23	4	-21	2
8	147	0.9	0.1	31	-39	4	-8	1
8	148	0.1	0.8	-31	-39	37	-36	2
8	149	0.4	0.7	20	9	24	-23	1
8	150	0.9	0.8	42	14	9	-27	1
8	151	0.1	0.3	-14	-32	32	-48	1
8	152	0.9	0.8	7	-30	14	2	2
8	153	0.3	0.1	11	-7	38	-29	1
8	154	0.2	0.4	33	-48	16	8	2
8	155	0.9	0.5	33	11	30	-41	1
8	156	0.3	0.5	33	23	-29	-37	1
8	157	0.2	0.2	41	-2	3	-34	1
8	158	0.9	0.7	33	-2	11	0	1
8	159	0.9	0.8	49	-33	-15	-30	1
8	160	0.5	0.4	34	33	32	15	1
8	161	0.2	0.5	32	11	13	-47	1
8	162	0.5	0.8	26	-35	43	41	2
8	163	0.1	0.4	21	-45	29	7	2
8	164	0.7	0.2	15	-2	27	0	1
8	165	0.9	0.2	50	-7	46	-43	1
8	166	0.7	0.5	20	-24	43	7	2
8	167	0.5	0.7	35	-50	14	-37	2
8	168	0.9	0.5	10	8	-13	-50	1
8	169	0.1	0.7	1	-12	-14	-15	1
8	170	0.3	0.5	-6	-42	24	-17	2
8	171	0.8	0.7	17	9	-24	-28	1
8	172	0.3	0.8	-46	-48	41	-21	2
8	173	0.9	0.8	-28	-42	40	-18	2
8	174	0.1	0.2	49	17	28	-28	1
8	175	0.8	0.5	50	-19	-24	-33	1
8	176	0.6	0.9	48	33	47	-11	1
8	177	0.9	0.3	49	-42	-18	-41	1
8	178	0.3	0.2	-17	-45	-2	-37	1
8	179	0.4	0.1	32	-41	22	5	2
8	180	0.7	0.5	18	-2	13	-10	2
8	181	0.2	0.3	37	23	25	-25	1
8	182	0.3	0.9	-13	-27	6	-49	2
8	183	0.7	0.1	1	-28	-1	-20	1
8	184	0.8	0.7	29	22	23	-16	1
8	185	0.1	0.7	43	-47	22	-45	2
8	186	0.4	0.8	31	-5	47	8	2
8	187	0.3	0.1	33	-17	4	-14	1
8	188	0.4	0.2	-8	-28	-42	-46	1
8	189	0.9	0.2	48	-4	49	-35	1
8	190	0.8	0.6	-11	-25	43	-35	2
8	191	0.2	0.5	38	-48	-14	-30	1
8	192	0.6	0.4	34	15	35	-6	1
8	193	0.5	0.2	7	-3	-19	-25	1
8	194	0.9	0.4	1	-1	25	-24	2
8	195	0.8	0.1	12	-9	23	-45	1
8	196	0.6	0.5	-14	-24	2	-18	2
8	197	0.2	0.3	35	-11	35	8	1
8	198	0.2	0.3	30	-9	38	13	2
8	199	0.4	0.3	-11	-22	29	-20	2
8	200	0.9	0.7	18	-20	24	-13	1
8	201	0.1	0.1	50	-37	26	4	2
8	202	0.4	0.8	32	-36	0	-46	1
8	203	0.8	0.1	43	41	26	-13	1
8	204	0.7	0.2	27	-30	49	19	2
8	205	0.5	0.3	-16	-29	-13	-14	2
8	206	0.7	0.5	-22	-25	39	37	2
8	207	0.2	0.4	25	-16	1	-40	1
8	208	0.4	0.2	32	-18	30	22	2
8	209	0.9	0.6	-8	-24	0	-2	2
8	210	0.2	0.8	10	-1	11	-18	2
8	211	0.7	0.7	5	0	47	-24	2
8	212	0.1	0.8	-30	-36	34	27	2
8	213	0.8	0.5	-19	-29	16	-29	2
8	214	0.2	0.4	5	-18	-5	-28	1
8	215	0.1	0.1	34	9	29	-46	1
8	216	0.4	0.9	14	-6	50	4	2
8	217	0.3	0.7	38	-45	-28	-32	1
8	218	0.3	0.5	50	-21	32	-37	2
8	219	0.3	0.4	30	-44	47	-43	2
8	220	0.4	0.4	49	3	36	-11	1
8	221	0.5	0.7	-33	-36	37	10	2
8	222	0.8	0.9	-17	-36	48	-17	2
8	223	0.6	0.5	26	-33	44	11	2
8	224	0.2	0.6	4	-6	20	16	2
8	225	0.7	0.6	34	9	-14	-28	1
8	226	0.3	0.2	4	-3	29	-35	2
8	227	0.4	0.6	39	-14	4	-49	1
8	228	0.7	0.3	-10	-16	24	-44	1
8	229	0.7	0.3	41	-25	24	-34	1
8	230	0.9	0.8	34	11	3	-1	1
8	231	0.9	0.3	45	39	18	-11	1
8	232	0.8	0.8	36	-38	22	9	1
8	233	0.9	0.4	18	7	-33	-35	1
8	234	0.6	0.4	38	-13	47	4	2
8	235	0.5	0.6	28	-32	6	-42	1
8	236	0.7	0.2	10	-48	37	-46	1
8	237	0.2	0.7	37	-25	22	-17	2
8	238	0.4	0.8	26	-16	44	28	2
8	239	0.9	0.2	49	4	26	-43	1
8	240	0.9	0.7	47	-27	11	-21	1
8	241	0.7	0.3	30	-20	28	7	1
8	242	0.9	0.4	-18	-47	14	11	2
8	243	0.2	0.4	5	-44	-11	-15	1
8	244	0.4	0.6	46	-1	18	-21	1
8	245	0.7	0.5	16	-49	1	-30	1
8	246	0.1	0.8	-5	-37	-28	-44	2
8	247	0.9	0.1	-33	-41	12	-27	1
8	248	0.9	0.4	-18	-48	-37	-41	1
8	249	0.2	0.6	24	-6	-14	-30	1
8	250	0.5	0.4	20	-19	-9	-28	1
8	251	0.4	0.9	33	-33	32	30	2
8	252	0.1	0.5	-6	-42	11	-15	2
8	253	0.6	0.5	45	36	6	-23	1
8	254	0.8	0.7	21	-33	13	-28	1
8	255	0.9	0.2	42	33	-23	-38	1
8	256	0.6	0.1	14	-40	22	-5	2
8	257	0.4	0.2	-22	-24	-3	-31	1
8	258	0.1	0.1	-31	-33	24	-23	1
8	259	0.7	0.6	46	-39	33	24	2
8	260	0.6	0.9	43	33	-13	-48	1
8	261	0.3	0.1	44	15	22	-42	1
8	262	0.9	0.5	49	46	48	6	1
8	263	0.5	0.1	42	25	38	-26	1
8	264	0.6	0.1	9	-49	21	-14	1
8	265	0.4	0.4	46	-41	41	23	2
8	266	0.4	0.8	30	-7	22	12	2
8	267	0.3	0.6	42	21	35	21	1
8	268	0.5	0.5	47	-27	12	-18	1
8	269	0.4	0.5	44	40	24	8	2
8	270	0.6	0.1	-22	-25	46	-29	2
8	271	0.5	0.5	41	17	50	0	1
8	272	0.9	0.1	-1	-23	-1	-27	1
8	273	0.1	0.5	12	-42	-11	-42	2
8	274	0.9	0.6	9	-29	48	30	2
8	275	0.6	0.4	39	12	-24	-47	1
8	276	0.6	0.2	-13	-22	-28	-50	2
8	277	0.9	0.7	41	-35	6	-20	1
8	278	0.2	0.4	48	-7	17	-46	1
8	279	0.2	0.2	-8	-17	35	33	2
8	280	0.3	0.8	41	-16	11	-26	2
8	281	0.3	0.7	-5	-31	23	-31	2
8	282	0.5	0.9	38	-7	12	2	2
8	283	0.6	0.7	24	-33	7	-25	1
8	284	0.8	0.4	46	13	-8	-45	1
8	285	0.6	0.6	35	0	-12	-27	1
8	286	0.3	0.2	-1	-36	17	-5	2
8	287	0.3	0.9	-15	-50	9	-48	2
8	288	0.1	0.6	22	-41	3	-18	2
8	289	0.6	0.2	46	41	42	-35	1
8	290	0.5	0.2	-22	-25	42	33	2
8	291	0.5	0.2	47	-1	24	3	1
8	292	0.4	0.1	-30	-44	18	-27	2
8	293	0.8	0.4	47	35	12	-3	1
8	294	0.9	0.2	46	-46	35	-20	1
8	295	0.4	0.3	11	-24	16	7	2
8	296	0.5	0.6	20	14	12	-14	1
8	297	0.5	0.8	41	37	22	-50	1
8	298	0.1	0.8	41	-43	40	-23	2
8	299	0.1	0.1	-4	-32	23	15	2
8	300	0.4	0.2	33	15	26	24	1
9	1	0.1	0.5	-3	-20	19	-30	2
9	2	0.9	0.4	23	-2	48	2	1
9	3	0.7	0.5	44	31	33	20	1
9	4	0.6	0.6	40	4	-5	-38	1
9	5	0.2	0.9	50	-46	7	-34	1
9	6	0.3	0.9	-3	-20	-32	-33	1
9	7	0.8	0.1	-22	-33	45	24	2
9	8	0.8	0.4	44	-10	30	15	2
9	9	0.8	0.5	6	-25	50	3	2
9	10	0.9	0.3	40	39	25	-43	1
9	11	0.1	0.8	33	30	31	-17	2
9	12	0.7	0.3	39	-35	16	-34	1
9	13	0.8	0.9	26	-1	8	-27	1
9	14	0.8	0.3	40	-39	49	17	1
9	15	0.8	0.1	-11	-29	46	12	2
9	16	0.4	0.5	9	6	-23	-42	1
9	17	0.7	0.9	47	35	41	-20	1
9	18	0.6	0.1	49	43	20	-32	1
9	19	0.7	0.8	37	19	38	36	1
9	20	0.6	0.8	24	-31	39	-36	2
9	21	0.6	0.1	-14	-44	-4	-5	2
9	22	0.2	0.1	30	-33	8	-1	1
9	23	0.7	0.4	-7	-20	12	-10	2
9	24	0.8	0.6	-34	-38	-7	-15	1
9	25	0.7	0.6	8	-30	22	-30	2
9	26	0.4	0.2	46	-26	-44	-46	1
9	27	0.8	0.2	34	-23	34	-25	1
9	28	0.3	0.9	35	-2	24	-43	2
9	29	0.4	0.5	-25	-46	10	-35	2
9	30	0.7	0.9	24	-8	-27	-40	1
9	31	0.2	0.9	31	26	38	20	2
9	32	0.7	0.3	40	4	9	-29	1
9	33	0.7	0.8	48	-6	45	-49	2
9	34	0.6	0.2	9	-1	31	2	1
9	35	0.6	0.4	8	-8	45	-38	1
9	36	0.5	0.2	-1	-31	25	-23	2
9	37	0.7	0.4	49	-28	27	23	2
9	38	0.3	0.1	45	-28	-36	-38	1
9	39	0.5	0.8	20	14	-17	-44	1
9	40	0.9	0.2	14	-17	41	39	2
9	41	0.2	0.8	46	4	40	-14	1
9	42	0.8	0.2	50	-12	1	-40	1
9	43	0.8	0.5	-13	-34	-14	-44	1
9	44	0.5	0.1	26	12	-36	-47	1
9	45	0.2	0.9	47	-30	48	39	2
9	46	0.7	0.4	36	11	24	12	1
9	47	0.9	0.7	27	-7	41	-38	1
9	48	0.3	0.4	-30	-42	-23	-31	2
9	49	0.7	0.6	14	-6	-29	-43	1
9	50	0.9	0.4	-13	-24	-11	-20	1
9	51	0.5	0.4	32	-7	0	-15	1
9	52	0.2	0.1	41	-29	28	-47	2
9	53	0.7	0.6	-11	-19	3	-46	2
9	54	0.8	0.9	-20	-24	49	33	2
9	55	0.4	0.6	20	18	-23	-48	1
9	56	0.1	0.6	38	-7	5	-2	2
9	57	0.5	0.8	-26	-27	41	-15	2
9	58	0.7	0.8	46	-26	45	-49	2
9	59	0.1	0.4	5	-26	-19	-31	2
9	60	0.7	0.6	18	-47	40	-18	2
9	61	0.1	0.6	33	31	31	16	1
9	62	0.7	0.7	-27	-44	-33	-45	2
9	63	0.4	0.8	26	23	-15	-21	1
9	64	0.1	0.5	29	18	-1	-3	1
9	65	0.8	0.4	15	-14	35	-28	1
9	66	0.6	0.6	33	12	34	15	2
9	67	0.1	0.1	37	-17	-4	-36	1
9	68	0.7	0.1	-5	-12	15	-31	1
9	69	0.4	0.7	-14	-24	41	-4	2
9	70	0.4	0.6	39	35	-26	-44	1
9	71	0.9	0.7	46	13	-34	-35	1
9	72	0.9	0.5	-17	-26	2	-22	2
9	73	0.8	0.4	-2	-10	28	-37	2
9	74	0.2	0.1	1	-50	30	-17	2
9	75	0.5	0.8	-34	-45	43	-18	2
9	76	0.1	0.3	-4	-27	39	-22	2
9	77	0.2	0.8	50	-44	-3	-10	2
9	78	0.5	0.7	-25	-34	24	-11	2
9	79	0.4	0.7	39	37	37	-43	1
9	80	0.7	0.6	-13	-46	-33	-35	1
9	81	0.3	0.4	28	-14	-3	-16	1
9	82	0.4	0.4	33	-4	33	2	2
9	83	0.5	0.2	35	-8	45	43	2
9	84	0.8	0.4	41	23	18	-48	1
9	85	0.3	0.8	46	-21	33	-34	2
9	86	0.3	0.4	3	-50	40	17	2
9	87	0.4	0.9	8	-12	42	31	2
9	88	0.9	0.7	26	16	36	-12	2
9	89	0.3	0.8	-11	-44	47	-34	2
9	90	0.5	0.9	20	-31	-41	-43	1
9	91	0.7	0.6	-23	-42	2	-30	2
9	92	0.3	0.9	40	20	-26	-49	1
9	93	0.8	0.5	29	-32	10	-45	1
9	94	0.3	0.8	-28	-44	16	-10	2
9	95	0.1	0.4	-5	-30	-2	-24	2
9	96	0.3	0.2	28	21	41	-50	1
9	97	0.6	0.7	25	-31	12	-44	1
9	98	0.7	0.4	17	-3	37	-12	1
9	99	0.5	0.1	30	-22	33	-7	1
9	100	0.9	0.2	-35	-37	36	9	2
9	101	0.8	0.3	5	-46	34	22	2
9	102	0.3	0.9	21	7	-29	-42	1
9	103	0.8	0.2	24	-7	35	23	2
9	104	0.6	0.3	44	0	29	-21	1
9	105	0.9	0.4	3	-48	-23	-30	1
9	106	0.3	0.1	35	1	30	-25	1
9	107	0.9	0.2	20	-8	42	-24	1
9	108	0.1	0.1	8	-41	-26	-38	1
9	109	0.6	0.9	39	-3	-12	-28	1
9	110	0.9	0.6	6	-46	18	0	1
9	111	0.2	0.7	-13	-49	34	-1	2
9	112	0.3	0.3	2	-12	31	21	2
9	113	0.6	0.1	-18	-30	-35	-41	1
9	114	0.4	0.4	48	-32	9	1	2
9	115	0.2	0.9	-2	-24	41	-40	2
9	116	0.2	0.4	-7	-34	26	-20	2
9	117	0.2	0.2	49	-2	50	16	2
9	118	0.9	0.7	47	-33	36	-13	1
9	119	0.5	0.9	29	-38	17	14	2
9	120	0.8	0.7	-19	-27	-26	-48	2
9	121	0.8	0.9	38	17	13	1	1
9	122	0.9	0.4	39	-42	35	-1	1
9	123	0.5	0.5	-38	-46	-29	-42	1
9	124	0.6	0.9	-11	-50	26	-6	2
9	125	0.7	0.6	-4	-23	36	-50	2
9	126	0.6	0.9	36	23	32	-14	2
9	127	0.4	0.2	-18	-48	5	-18	2
9	128	0.8	0.4	42	6	47	23	1
9	129	0.1	0.8	3	-35	32	-48	2
9	130	0.9	0.4	30	-23	42	35	2
9	131	0.4	0.7	13	-40	42	-8	2
9	132	0.2	0.8	-38	-50	-10	-27	2
9	133	0.4	0.1	-10	-47	21	-4	2
9	134	0.9	0.1	20	-37	47	-33	1
9	135	0.8	0.9	40	-34	17	-22	2
9	136	0.8	0.7	-3	-6	-21	-30	1
9	137	0.9	0.8	1	-32	24	-41	2
9	138	0.4	0.8	43	-31	46	27	2
9	139	0.1	0.7	18	-22	13	-19	2
9	140	0.4	0.3	20	-50	49	46	2
9	141	0.2	0.4	-8	-50	40	33	2
9	142	0.7	0.6	25	-11	29	-7	2
9	143	0.5	0.2	-12	-33	25	-3	2
9	144	0.2	0.1	31	-48	-4	-16	2
9	145	0.6	0.7	25	-16	33	17	2
9	146	0.1	0.4	32	31	5	-25	1
9	147	0.9	0.1	29	-23	-5	-27	1
9	148	0.6	0.9	12	-18	31	-48	2
9	149	0.3	0.7	-12	-23	34	-45	2
9	150	0.8	0.2	15	-49	44	-3	1
9	151	0.4	0.6	35	-40	35	-4	1
9	152	0.6	0.8	4	-35	47	33	2
9	153	0.9	0.5	49	-41	-36	-49	1
9	154	0.2	0.5	11	10	30	-28	1
9	155	0.1	0.6	11	-36	49	-24	2
9	156	0.7	0.3	1	-31	45	27	2
9	157	0.1	0.6	-6	-42	48	2	2
9	158	0.7	0.4	40	6	23	-14	1
9	159	0.6	0.2	25	-46	45	7	2
9	160	0.4	0.3	2	-32	34	-9	2
9	161	0.1	0.2	-37	-46	-5	-37	2
9	162	0.2	0.6	25	-11	38	-21	2
9	163	0.2	0.2	-10	-47	33	-2	2
9	164	0.8	0.2	24	-10	-36	-46	1
9	165	0.2	0.9	48	7	25	-16	2
9	166	0.7	0.5	48	-43	29	-42	1
9	167	0.4	0.5	-30	-42	38	-50	2
9	168	0.8	0.9	41	20	33	-49	1
9	169	0.9	0.6	-2	-48	-28	-30	2
9	170	0.5	0.8	-1	-50	24	-16	2
9	171	0.8	0.4	40	37	-27	-29	1
9	172	0.2	0.3	14	-19	-23	-37	2
9	173	0.1	0.4	10	-25	-22	-33	2
9	174	0.1	0.5	47	-27	40	11	2
9	175	0.6	0.3	-19	-20	35	-8	2
9	176	0.4	0.8	24	-17	29	18	2
9	177	0.5	0.4	25	-21	28	6	2
9	178	0.7	0.5	-12	-31	-25	-46	2
9	179	0.6	0.1	46	-11	31	7	1
9	180	0.6	0.9	21	-14	14	-14	1
9	181	0.3	0.4	3	-33	14	-19	2
9	182	0.3	0.6	8	5	39	-43	1
9	183	0.7	0.4	13	-23	42	0	1
9	184	0.5	0.4	6	-37	28	-49	1
9	185	0.9	0.6	34	4	15	-42	1
9	186	0.2	0.1	42	10	17	-46	1
9	187	0.4	0.2	27	-49	-35	-41	1
9	188	0.9	0.4	49	-38	44	37	1
9	189	0.1	0.2	-18	-34	-29	-50	1
9	190	0.8	0.8	22	15	35	33	1
9	191	0.5	0.8	43	21	-28	-37	1
9	192	0.2	0.4	49	28	24	-2	1
9	193	0.8	0.4	4	-7	43	33	2
9	194	0.9	0.7	11	5	-25	-38	1
9	195	0.8	0.1	11	10	34	17	2
9	196	0.7	0.9	-2	-22	39	28	2
9	197	0.4	0.1	35	8	42	-30	1
9	198	0.3	0.2	40	37	22	-27	1
9	199	0.9	0.4	4	-26	26	-45	1
9	200	0.1	0.6	48	46	49	-50	1
9	201	0.8	0.9	42	-9	30	7	2
9	202	0.6	0.2	23	-35	17	-7	2
9	203	0.2	0.6	39	-31	10	-23	1
9	204	0.5	0.5	36	-40	-25	-49	2
9	205	0.7	0.9	32	-42	34	-29	2
9	206	0.8	0.9	4	-35	19	-13	2
9	207	0.1	0.3	38	-42	49	-21	2
9	208	0.2	0.6	12	-34	0	-15	2
9	209	0.9	0.6	26	3	-13	-49	1
9	210	0.3	0.6	27	-14	39	32	2
9	211	0.1	0.6	19	-44	31	17	2
9	212	0.1	0.2	24	1	-10	-33	1
9	213	0.4	0.1	35	-25	12	-45	1
9	214	0.6	0.2	23	4	27	-28	1
9	215	0.9	0.1	46	8	32	22	1
9	216	0.2	0.9	39	26	23	-11	2
9	217	0.7	0.8	49	20	50	-42	1
9	218	0.9	0.4	1	-27	-10	-50	1
9	219	0.4	0.2	7	-13	47	6	2
9	220	0.4	0.2	41	8	32	9	2
9	221	0.9	0.4	44	-14	22	17	1
9	222	0.8	0.8	38	24	31	-22	1
9	223	0.9	0.8	21	-44	15	1	2
9	224	0.2	0.4	14	-19	-20	-47	1
9	225	0.9	0.1	-5	-48	49	-19	2
9	226	0.7	0.1	34	-4	2	-26	1
9	227	0.1	0.6	5	-4	-24	-50	1
9	228	0.5	0.4	26	-50	14	-49	1
9	229	0.2	0.7	16	-25	44	12	2
9	230	0.8	0.9	30	14	-18	-20	1
9	231	0.4	0.9	-18	-29	-24	-31	1
9	232	0.6	0.5	39	-35	30	-14	1
9	233	0.9	0.2	44	-43	13	-35	1
9	234	0.4	0.5	47	38	34	-14	1
9	235	0.3	0.2	41	22	-41	-50	1
9	236	0.5	0.6	41	-5	34	-3	2
9	237	0.8	0.3	27	-26	44	-49	1
9	238	0.6	0.9	43	14	19	-44	1
9	239	0.5	0.4	-40	-49	49	12	2
9	240	0.1	0.5	14	-33	46	-5	2
9	241	0.6	0.8	49	45	18	-14	1
9	242	0.4	0.2	3	-48	13	6	2
9	243	0.5	0.1	-1	-34	-38	-46	1
9	244	0.5	0.1	-9	-14	1	-48	1
9	245	0.1	0.8	-12	-36	45	-24	2
9	246	0.3	0.1	11	-6	26	-32	2
9	247	0.1	0.8	-28	-48	48	-39	2
9	248	0.1	0.8	35	14	-3	-21	1
9	249	0.3	0.9	41	14	9	-18	1
9	250	0.3	0.4	2	-40	-2	-38	1
9	251	0.2	0.5	50	29	25	-4	1
9	252	0.9	0.9	24	1	-42	-44	1
9	253	0.5	0.9	36	-9	35	-30	2
9	254	0.3	0.5	-8	-20	-5	-43	1
9	255	0.2	0.6	41	9	4	-4	1
9	256	0.9	0.1	7	-34	8	5	2
9	257	0.2	0.6	-22	-48	16	-45	2
9	258	0.3	0.4	38	36	23	-44	1
9	259	0.5	0.2	46	-10	33	-46	1
9	260	0.3	0.8	38	34	46	6	1
9	261	0.5	0.3	3	-27	49	40	2
9	262	0.2	0.5	39	-9	45	-11	2
9	263	0.8	0.8	20	15	40	-46	2
9	264	0.4	0.4	45	-21	33	27	2
9	265	0.2	0.9	33	-50	33	15	2
9	266	0.6	0.6	-2	-50	18	0	2
9	267	0.4	0.1	41	33	-6	-23	1
9	268	0.2	0.8	41	16	7	-46	1
9	269	0.9	0.3	-10	-47	48	-5	2
9	270	0.7	0.6	33	-16	26	-10	1
9	271	0.3	0.6	14	-21	50	45	2
9	272	0.7	0.3	49	-13	35	20	2
9	273	0.1	0.7	20	-39	35	-38	2
9	274	0.5	0.1	35	-45	0	-15	2
9	275	0.1	0.9	-3	-13	-5	-14	1
9	276	0.5	0.7	46	-26	37	-11	2
9	277	0.8	0.9	9	-32	31	14	2
9	278	0.6	0.4	44	-10	12	-24	2
9	279	0.9	0.4	-18	-49	41	37	2
9	280	0.4	0.7	34	-32	26	-37	2
9	281	0.6	0.8	7	-26	24	-22	2
9	282	0.3	0.1	-37	-39	49	-11	2
9	283	0.6	0.4	43	-15	-32	-41	1
9	284	0.6	0.6	21	-11	-1	-10	1
9	285	0.7	0.1	10	-17	44	18	2
9	286	0.5	0.8	16	-4	30	-27	2
9	287	0.9	0.2	45	5	49	35	1
9	288	0.1	0.2	-5	-35	45	-48	1
9	289	0.8	0.5	12	6	-8	-20	1
9	290	0.1	0.8	35	-34	34	-30	2
9	291	0.3	0.2	13	-42	38	-23	2
9	292	0.8	0.5	-32	-47	-3	-5	2
9	293	0.1	0.5	37	-45	3	-3	2
9	294	0.7	0.1	37	15	29	24	2
9	295	0.6	0.9	35	-7	46	34	2
9	296	0.6	0.2	41	-36	34	-22	1
9	297	0.5	0.3	35	-40	-8	-39	2
9	298	0.9	0.2	15	-48	-4	-25	1
9	299	0.5	0.1	-22	-49	26	-29	2
9	300	0.2	0.9	-2	-16	0	-14	2
10	1	0.5	0.2	23	-35	7	-7	2
10	2	0.9	0.2	35	33	14	-26	1
10	3	0.5	0.9	32	-38	22	-30	2
10	4	0.4	0.6	47	-39	3	2	2
10	5	0.9	0.8	38	-29	1	-7	1
10	6	0.7	0.4	-34	-48	42	-24	2
10	7	0.9	0.6	-12	-49	-9	-36	2
10	8	0.3	0.5	7	0	21	-17	1
10	9	0.3	0.3	27	-11	11	-8	1
10	10	0.6	0.3	41	9	32	-34	1
10	11	0.3	0.3	22	-34	41	7	2
10	12	0.5	0.9	40	-30	-22	-34	1
10	13	0.7	0.1	22	-7	39	-38	1
10	14	0.3	0.8	-18	-34	-5	-35	2
10	15	0.4	0.8	-10	-27	-35	-47	2
10	16	0.4	0.6	45	21	-9	-31	1
10	17	0.3	0.4	34	-32	32	-24	1
10	18	0.5	0.3	33	-26	35	0	2
10	19	0.9	0.5	-5	-33	17	-27	2
10	20	0.5	0.1	11	-43	-18	-48	1
10	21	0.7	0.2	40	-39	15	-33	1
10	22	0.4	0.8	23	-38	19	-22	2
10	23	0.8	0.5	26	-46	-24	-43	1
10	24	0.1	0.8	25	17	49	9	2
10	25	0.5	0.9	19	-31	-10	-38	1
10	26	0.5	0.3	43	-14	-9	-46	1
10	27	0.3	0.5	43	-20	29	-36	2
10	28	0.7	0.7	28	-41	28	-35	1
10	29	0.8	0.2	-23	-29	35	14	2
10	30	0.9	0.4	21	14	32	1	1
10	31	0.7	0.8	45	24	26	-4	1
10	32	0.2	0.1	24	-19	39	-9	2
10	33	0.2	0.5	35	-47	49	-16	2
10	34	0.4	0.7	45	5	4	-18	1
10	35	0.5	0.8	34	-25	-32	-50	1
10	36	0.8	0.1	-6	-9	43	39	2
10	37	0.2	0.7	-30	-35	0	-20	2
10	38	0.2	0.4	-7	-36	31	-48	2
10	39	0.3	0.2	48	-16	-3	-6	2
10	40	0.2	0.5	0	-10	31	-27	2
10	41	0.8	0.2	-10	-50	12	-7	2
10	42	0.3	0.1	34	25	47	41	2
10	43	0.9	0.9	21	-30	11	-44	1
10	44	0.5	0.3	-14	-44	-5	-28	2
10	45	0.2	0.4	39	-26	-3	-28	1
10	46	0.8	0.8	-26	-36	43	-4	2
10	47	0.9	0.6	50	11	1	-20	1
10	48	0.9	0.5	-14	-30	47	3	2
10	49	0.6	0.8	45	-15	14	-1	1
10	50	0.4	0.7	41	4	39	-37	1
10	51	0.7	0.5	-15	-41	-8	-19	2
10	52	0.1	0.6	7	-31	29	-37	2
10	53	0.3	0.1	11	-50	38	-35	1
10	54	0.9	0.2	28	-39	44	-16	1
10	55	0.7	0.1	49	11	29	-43	1
10	56	0.1	0.5	-5	-35	19	6	2
10	57	0.4	0.1	17	13	-15	-19	1
10	58	0.1	0.1	46	42	-5	-36	1
10	59	0.2	0.6	36	33	32	-48	1
10	60	0.1	0.1	-3	-32	18	-43	1
10	61	0.2	0.2	22	-42	-30	-39	1
10	62	0.4	0.6	40	-24	43	-28	2
10	63	0.1	0.6	41	-48	23	-6	2
10	64	0.1	0.8	-42	-44	23	11	2
10	65	0.1	0.6	34	-23	-21	-32	1
10	66	0.6	0.3	41	27	-9	-30	1
10	67	0.1	0.7	40	20	50	5	2
10	68	0.9	0.3	-15	-16	20	2	2
10	69	0.1	0.9	36	-13	42	19	2
10	70	0.6	0.1	14	-47	26	-27	1
10	71	0.9	0.5	1	-7	42	9	2
10	72	0.3	0.2	42	-11	18	16	2
10	73	0.3	0.2	35	-40	3	-47	2
10	74	0.4	0.3	40	-18	-6	-34	1
10	75	0.8	0.5	29	-34	47	-8	1
10	76	0.7	0.8	-23	-32	11	-12	2
10	77	0.3	0.9	-31	-39	-16	-49	2
10	78	0.7	0.1	37	-17	21	-48	1
10	79	0.9	0.3	44	-11	34	-23	1
10	80	0.5	0.5	-26	-44	-21	-41	2
10	81	0.1	0.2	37	-38	17	-3	2
10	82	0.4	0.5	34	20	-3	-11	1
10	83	0.4	0.7	-8	-11	-10	-23	1
10	84	0.8	0.9	21	-19	17	-40	1
10	85	0.5	0.1	6	3	38	-18	1
10	86	0.7	0.8	26	-16	27	-44	2
10	87	0.5	0.1	39	-6	29	16	2
10	88	0.6	0.2	14	13	17	0	1
10	89	0.2	0.9	-22	-39	27	-32	2
10	90	0.9	0.6	44	39	25	-35	1
10	91	0.3	0.9	18	-4	45	-11	2
10	92	0.3	0.6	15	-35	32	-1	2
10	93	0.7	0.7	3	-15	25	-29	2
10	94	0.6	0.8	41	-7	-8	-35	1
10	95	0.9	0.8	-2	-45	36	5	2
10	96	0.3	0.9	-34	-49	32	15	2
10	97	0.8	0.4	39	-41	32	-40	1
10	98	0.8	0.6	46	43	48	14	1
10	99	0.7	0.8	17	-39	25	-2	2
10	100	0.6	0.5	30	-41	46	-18	2
10	101	0.9	0.8	0	-2	-23	-32	1
10	102	0.9	0.7	44	4	47	36	2
10	103	0.5	0.9	4	-48	21	-41	2
10	104	0.8	0.5	-3	-45	46	43	2
10	105	0.8	0.9	37	-21	13	-37	1
10	106	0.2	0.2	10	-6	35	-15	2
10	107	0.5	0.6	26	-40	-28	-48	1
10	108	0.2	0.5	8	-4	-12	-46	1
10	109	0.6	0.5	46	30	45	-18	1
10	110	0.7	0.9	36	29	-12	-18	1
10	111	0.1	0.9	40	4	-29	-36	1
10	112	0.4	0.9	26	5	26	-43	1
10	113	0.7	0.6	36	-46	49	-7	2
10	114	0.2	0.1	49	1	45	-13	1
10	115	0.3	0.8	-27	-48	0	-36	2
10	116	0.5	0.9	-2	-9	40	-4	2
10	117	0.7	0.4	1	-42	35	34	2
10	118	0.7	0.5	-27	-42	-23	-25	2
10	119	0.3	0.2	11	-23	19	-25	2
10	120	0.7	0.6	50	-43	-25	-39	1
10	121	0.7	0.4	46	35	48	5	1
10	122	0.6	0.8	19	-18	30	13	2
10	123	0.2	0.8	42	-48	40	0	2
10	124	0.6	0.6	42	14	47	44	1
10	125	0.9	0.7	47	-27	10	1	1
10	126	0.4	0.6	-4	-34	34	16	2
10	127	0.6	0.7	-26	-47	24	-3	2
10	128	0.9	0.3	0	-41	17	-19	2
10	129	0.8	0.5	8	-22	50	22	2
10	130	0.7	0.4	29	-42	29	24	2
10	131	0.5	0.2	-6	-42	14	-6	2
10	132	0.4	0.7	49	-9	-7	-48	1
10	133	0.4	0.9	16	8	26	3	2
10	134	0.9	0.9	17	-13	-9	-49	1
10	135	0.7	0.1	10	-40	12	-11	2
10	136	0.1	0.1	-18	-30	-13	-45	1
10	137	0.9	0.3	-22	-48	-6	-46	1
10	138	0.1	0.3	49	3	-29	-43	1
10	139	0.9	0.3	25	-45	32	21	2
10	140	0.3	0.1	15	-48	14	-35	2
10	141	0.7	0.9	44	42	43	-2	1
10	142	0.9	0.7	33	-37	40	-37	2
10	143	0.2	0.2	23	-44	49	34	2
10	144	0.3	0.4	16	-34	17	-23	2
10	145	0.9	0.3	46	11	48	-39	1
10	146	0.4	0.9	29	5	9	5	2
10	147	0.5	0.5	45	-31	48	22	2
10	148	0.6	0.2	40	18	13	-15	1
10	149	0.9	0.6	45	0	1	-24	1
10	150	0.6	0.3	-14	-41	-21	-31	2
10	151	0.3	0.3	33	-23	40	-33	1
10	152	0.2	0.7	21	-1	44	16	2
10	153	0.2	0.6	-25	-47	31	-17	2
10	154	0.7	0.1	4	-38	33	18	2
10	155	0.4	0.6	26	-38	31	-9	2
10	156	0.8	0.1	27	-37	6	-38	1
10	157	0.7	0.8	20	-48	12	-17	2
10	158	0.5	0.4	32	-26	47	19	2
10	159	0.2	0.2	42	4	0	-44	1
10	160	0.1	0.5	6	-1	50	41	2
10	161	0.3	0.7	39	11	50	-29	1
10	162	0.4	0.1	-1	-50	50	-19	1
10	163	0.9	0.3	-2	-24	22	-41	1
10	164	0.3	0.1	-32	-33	36	24	2
10	165	0.2	0.1	2	-45	-27	-32	2
10	166	0.6	0.5	31	5	-5	-11	1
10	167	0.9	0.9	32	-19	-7	-27	1
10	168	0.4	0.8	10	-38	-17	-35	1
10	169	0.9	0.5	25	-32	-37	-40	1
10	170	0.1	0.9	23	13	-8	-23	1
10	171	0.6	0.1	29	1	22	14	1
10	172	0.4	0.1	30	-3	24	-35	1
10	173	0.5	0.3	20	-48	40	6	2
10	174	0.5	0.5	-33	-38	18	-15	2
10	175	0.8	0.8	33	11	39	20	1
10	176	0.8	0.7	29	-30	28	25	2
10	177	0.2	0.2	-29	-30	-4	-43	2
10	178	0.2	0.4	25	-13	35	-5	2
10	179	0.5	0.2	41	22	13	-24	1
10	180	0.1	0.6	-14	-47	40	2	2
10	181	0.9	0.2	24	-43	13	-14	1
10	182	0.8	0.8	3	-8	-3	-50	1
10	183	0.5	0.8	-5	-16	38	-49	2
10	184	0.3	0.4	23	12	-29	-41	1
10	185	0.9	0.1	39	-46	27	-3	1
10	186	0.2	0.8	43	17	7	-23	1
10	187	0.5	0.8	17	13	-16	-30	1
10	188	0.3	0.6	29	10	20	-3	1
10	189	0.7	0.7	46	-11	27	-42	1
10	190	0.8	0.5	32	-9	49	-4	1
10	191	0.7	0.6	6	-28	45	-24	2
10	192	0.1	0.1	38	-6	14	-15	1
10	193	0.8	0.4	20	11	45	-18	1
10	194	0.2	0.9	-6	-50	27	8	2
10	195	0.4	0.3	30	-43	10	-9	2
10	196	0.9	0.4	-17	-50	22	-19	2
10	197	0.2	0.6	-31	-38	22	-32	2
10	198	0.6	0.9	0	-48	-22	-43	1
10	199	0.5	0.7	50	49	35	-5	1
10	200	0.4	0.2	32	-48	50	1	2
10	201	0.6	0.9	48	35	18	0	1
10	202	0.8	0.8	41	-17	-16	-40	1
10	203	0.9	0.5	12	-28	28	-17	2
10	204	0.7	0.7	44	9	32	-28	1
10	205	0.2	0.6	3	-9	46	27	2
10	206	0.9	0.9	-23	-26	15	-23	2
10	207	0.7	0.8	35	17	43	1	2
10	208	0.8	0.2	50	-35	-18	-40	1
10	209	0.2	0.1	23	-43	23	-11	2
10	210	0.3	0.4	28	-17	43	-15	2
10	211	0.1	0.4	-10	-14	30	10	2
10	212	0.2	0.8	3	-32	38	25	2
10	213	0.9	0.7	-8	-41	32	-12	2
10	214	0.5	0.4	-5	-9	16	-24	1
10	215	0.5	0.7	17	14	26	-32	1
10	216	0.5	0.4	20	-25	11	-1	1
10	217	0.4	0.7	-27	-41	-19	-49	2
10	218	0.8	0.7	35	23	28	-20	1
10	219	0.6	0.1	50	22	50	-18	1
10	220	0.6	0.9	-14	-40	15	8	2
10	221	0.2	0.2	37	-41	49	-6	2
10	222	0.7	0.8	-4	-31	8	-34	2
10	223	0.5	0.9	33	-8	18	-35	2
10	224	0.6	0.4	25	-10	15	-34	1
10	225	0.2	0.8	38	6	-48	-50	1
10	226	0.6	0.1	49	0	-8	-18	1
10	227	0.2	0.6	0	-33	-24	-27	1
10	228	0.3	0.4	35	-7	39	-38	1
10	229	0.2	0.5	10	7	25	0	2
10	230	0.5	0.1	43	12	44	-13	1
10	231	0.2	0.9	-19	-24	-14	-47	2
10	232	0.5	0.5	27	14	-29	-47	1
10	233	0.6	0.8	43	-35	-9	-38	1
10	234	0.1	0.4	20	-21	32	-47	2
10	235	0.7	0.7	0	-23	12	3	2
10	236	0.3	0.1	6	-35	40	16	2
10	237	0.4	0.4	13	-44	46	27	2
10	238	0.7	0.9	23	-12	38	8	2
10	239	0.3	0.4	31	3	9	-27	1
10	240	0.4	0.6	22	-40	42	32	2
10	241	0.5	0.3	47	-21	-13	-34	1
10	242	0.2	0.1	33	-33	-2	-23	1
10	243	0.3	0.3	29	-10	29	-16	2
10	244	0.4	0.2	4	-15	-23	-50	1
10	245	0.9	0.9	-23	-27	40	-12	2
10	246	0.7	0.4	39	-24	39	-33	1
10	247	0.8	0.6	-9	-23	50	18	2
10	248	0.1	0.8	31	21	13	-41	1
10	249	0.3	0.6	43	-31	4	-31	2
10	250	0.2	0.8	13	-14	42	-45	2
10	251	0.3	0.3	45	14	-31	-38	1
10	252	0.3	0.5	18	-38	3	-32	2
10	253	0.4	0.7	-9	-14	7	-31	2
10	254	0.8	0.4	46	-37	33	9	1
10	255	0.6	0.7	17	-23	3	-38	1
10	256	0.3	0.7	-4	-37	38	0	2
10	257	0.7	0.6	14	-47	40	-26	2
10	258	0.1	0.6	36	-16	38	19	2
10	259	0.5	0.5	6	-11	47	7	2
10	260	0.8	0.2	40	33	28	27	1
10	261	0.6	0.3	-14	-37	30	0	2
10	262	0.1	0.3	40	-5	-11	-47	1
10	263	0.2	0.6	23	-14	5	-22	1
10	264	0.3	0.5	29	-15	20	-20	1
10	265	0.7	0.2	-30	-46	-2	-14	2
10	266	0.5	0.4	-15	-16	21	-36	1
10	267	0.8	0.4	29	10	-9	-18	1
10	268	0.7	0.9	34	27	0	-7	1
10	269	0.1	0.5	8	-11	24	-16	2
10	270	0.1	0.1	11	-25	49	28	2
10	271	0.3	0.2	45	-16	33	-5	2
10	272	0.4	0.4	-4	-19	-10	-35	2
10	273	0.6	0.1	48	-36	-19	-35	1
10	274	0.8	0.1	-8	-20	41	-30	1
10	275	0.6	0.5	-6	-26	16	11	2
10	276	0.8	0.1	7	-10	27	-36	1
10	277	0.6	0.5	-21	-36	48	-9	2
10	278	0.6	0.1	39	-42	30	-25	1
10	279	0.3	0.4	36	-29	43	-22	1
10	280	0.3	0.4	45	12	-14	-19	1
10	281	0.8	0.9	19	-23	6	-3	1
10	282	0.7	0.6	45	-39	13	-50	1
10	283	0.6	0.8	27	-33	28	22	2
10	284	0.1	0.1	-17	-34	18	-7	2
10	285	0.3	0.8	40	-4	33	31	2
10	286	0.4	0.6	34	-19	0	-10	1
10	287	0.8	0.5	0	-5	-7	-23	1
10	288	0.6	0.2	18	7	45	-36	1
10	289	0.5	0.6	20	-5	31	-3	2
10	290	0.9	0.3	20	-19	35	-25	1
10	291	0.6	0.7	39	-30	39	12	2
10	292	0.2	0.6	25	23	35	13	1
10	293	0.7	0.8	-7	-30	32	14	2
10	294	0.7	0.1	20	-50	5	-39	1
10	295	0.4	0.6	33	12	-21	-29	1
10	296	0.6	0.9	44	37	30	-45	1
10	297	0.2	0.9	50	-28	39	33	2
10	298	0.8	0.2	35	27	5	-21	1
10	299	0.7	0.9	1	-27	2	-5	2
10	300	0.3	0.7	-37	-38	-1	-3	2
11	1	0.6	0.8	-4	-11	18	1	2
11	2	0.6	0.3	38	5	17	-11	1
11	3	0.5	0.7	33	-9	-13	-17	1
11	4	0.1	0.2	-26	-49	-15	-29	2
11	5	0.6	0.6	-19	-24	11	-20	2
11	6	0.5	0.8	25	14	11	-43	1
11	7	0.7	0.5	22	-2	-24	-37	1
11	8	0.4	0.8	-34	-35	23	-29	2
11	9	0.8	0.3	-1	-6	14	1	2
11	10	0.9	0.5	25	-32	15	-1	1
11	11	0.8	0.1	16	-26	50	-35	1
11	12	0.1	0.7	48	-4	42	-8	2
11	13	0.1	0.1	8	-39	8	-34	1
11	14	0.6	0.6	35	-11	45	-46	1
11	15	0.7	0.8	49	-26	33	1	1
11	16	0.6	0.3	50	12	49	-35	1
11	17	0.5	0.8	37	-38	-11	-35	1
11	18	0.5	0.6	30	-46	-14	-22	1
11	19	0.6	0.5	48	-2	4	-26	1
11	20	0.3	0.6	40	-4	48	10	2
11	21	0.3	0.2	13	-8	13	4	2
11	22	0.7	0.8	-19	-43	21	-5	2
11	23	0.8	0.4	-31	-32	10	-20	2
11	24	0.7	0.4	8	-33	-46	-49	1
11	25	0.4	0.9	34	26	40	-33	1
11	26	0.4	0.4	-12	-50	-4	-9	2
11	27	0.1	0.5	50	-31	50	46	2
11	28	0.9	0.8	-4	-34	4	-50	2
11	29	0.3	0.5	23	19	32	-30	1
11	30	0.6	0.2	-10	-31	0	-48	2
11	31	0.7	0.8	30	-7	44	2	2
11	32	0.4	0.1	49	27	7	-22	1
11	33	0.4	0.9	18	-4	25	-16	2
11	34	0.4	0.3	32	-33	46	-24	1
11	35	0.9	0.8	24	-14	15	-39	1
11	36	0.4	0.6	46	43	33	-36	1
11	37	0.1	0.6	47	-32	40	35	2
11	38	0.9	0.5	17	-31	-2	-12	1
11	39	0.4	0.4	43	20	-13	-23	1
11	40	0.6	0.2	17	-34	-24	-45	1
11	41	0.6	0.1	9	8	47	19	1
11	42	0.9	0.5	32	21	10	-17	1
11	43	0.3	0.3	37	33	-22	-36	1
11	44	0.8	0.3	4	-6	39	24	2
11	45	0.1	0.9	14	-20	5	-15	2
11	46	0.3	0.1	-4	-37	45	11	2
11	47	0.2	0.5	-20	-43	44	-49	2
11	48	0.6	0.5	47	-26	15	-39	1
11	49	0.3	0.9	-17	-27	-11	-20	2
11	50	0.1	0.9	35	-14	49	14	2
11	51	0.1	0.1	13	-34	49	-13	2
11	52	0.8	0.7	30	-43	21	-19	1
11	53	0.3	0.4	-14	-16	-7	-47	2
11	54	0.3	0.9	13	-36	37	-44	1
11	55	0.5	0.8	-8	-27	20	-25	2
11	56	0.8	0.2	22	5	1	-5	1
11	57	0.7	0.1	27	-25	-13	-45	1
11	58	0.4	0.5	50	18	-2	-7	1
11	59	0.4	0.5	31	-9	17	8	2
11	60	0.7	0.8	7	0	24	-38	2
11	61	0.6	0.4	9	-39	-28	-34	1
11	62	0.4	0.4	39	-42	-4	-13	1
11	63	0.3	0.4	28	-43	16	-32	1
11	64	0.7	0.5	50	-29	32	-40	1
11	65	0.1	0.1	18	-33	40	26	2
11	66	0.7	0.7	48	-27	10	-44	1
11	67	0.9	0.8	47	3	-1	-46	1
11	68	0.3	0.7	2	-33	-28	-48	1
11	69	0.6	0.5	16	2	-11	-27	1
11	70	0.6	0.1	3	-20	11	-43	1
11	71	0.8	0.6	7	-27	-13	-24	1
11	72	0.5	0.9	22	-13	5	-33	1
11	73	0.3	0.6	40	21	39	-25	1
11	74	0.4	0.3	13	-12	13	10	2
11	75	0.1	0.6	12	-37	5	-5	2
11	76	0.8	0.7	44	4	12	-12	1
11	77	0.1	0.7	37	14	39	-4	1
11	78	0.7	0.2	22	4	20	19	1
11	79	0.4	0.7	46	42	6	-26	1
11	80	0.5	0.2	10	-3	13	-21	1
11	81	0.3	0.3	16	6	34	-12	1
11	82	0.6	0.2	17	11	36	-31	1
11	83	0.2	0.3	5	1	15	-15	1
11	84	0.4	0.7	43	-10	40	-40	2
11	85	0.8	0.8	-12	-23	1	-26	2
11	86	0.1	0.3	42	41	48	-14	1
11	87	0.1	0.8	-12	-22	-17	-30	2
11	88	0.5	0.2	18	-29	39	-7	1
11	89	0.8	0.2	24	17	30	-30	1
11	90	0.6	0.3	-2	-4	15	-4	2
11	91	0.8	0.1	2	-46	5	-38	1
11	92	0.5	0.7	-34	-44	32	31	2
11	93	0.9	0.2	18	-24	11	-22	1
11	94	0.3	0.8	15	-17	-22	-31	1
11	95	0.6	0.3	39	12	9	-40	1
11	96	0.9	0.1	36	32	35	32	1
11	97	0.1	0.1	41	4	44	-47	1
11	98	0.7	0.2	18	-13	33	27	2
11	99	0.4	0.9	46	-41	26	-10	2
11	100	0.3	0.2	38	-43	-23	-41	1
11	101	0.1	0.6	-23	-24	37	0	2
11	102	0.6	0.1	33	-45	35	18	2
11	103	0.5	0.5	5	-47	-16	-45	1
11	104	0.8	0.9	33	-38	42	-15	2
11	105	0.4	0.1	-43	-47	46	25	2
11	106	0.5	0.1	-18	-32	33	-21	2
11	107	0.1	0.6	19	15	-23	-40	1
11	108	0.2	0.6	31	-31	29	2	2
11	109	0.5	0.1	8	-47	42	15	2
11	110	0.2	0.7	39	-20	-1	-47	1
11	111	0.1	0.3	9	-17	-35	-36	1
11	112	0.6	0.3	37	35	31	-11	1
11	113	0.6	0.8	49	-49	12	-31	1
11	114	0.9	0.2	9	-33	25	-23	1
11	115	0.6	0.5	25	4	9	-31	1
11	116	0.5	0.8	20	-7	45	18	2
11	117	0.7	0.6	48	-1	34	23	2
11	118	0.7	0.3	23	15	-1	-16	1
11	119	0.4	0.3	-6	-43	21	13	2
11	120	0.9	0.3	-32	-38	20	6	2
11	121	0.2	0.3	-27	-32	30	-48	1
11	122	0.7	0.9	46	6	31	27	1
11	123	0.8	0.5	-16	-39	41	3	2
11	124	0.8	0.6	22	10	50	-26	1
11	125	0.8	0.2	28	-23	8	-40	1
11	126	0.3	0.3	33	-33	18	-38	2
11	127	0.7	0.7	34	-8	23	-23	1
11	128	0.6	0.5	29	-12	29	-10	2
11	129	0.2	0.1	-23	-25	41	-28	2
11	130	0.2	0.4	-14	-44	50	44	2
11	131	0.9	0.4	4	-11	9	-19	1
11	132	0.3	0.4	-6	-44	50	-35	2
11	133	0.2	0.2	15	-12	24	9	2
11	134	0.3	0.4	39	32	30	-40	1
11	135	0.8	0.5	42	29	14	-28	1
11	136	0.7	0.7	-11	-21	39	-31	2
11	137	0.9	0.8	40	-13	27	-1	2
11	138	0.9	0.9	-30	-41	-27	-50	1
11	139	0.8	0.9	36	-30	-11	-36	1
11	140	0.6	0.9	-31	-43	17	-43	2
11	141	0.4	0.1	28	-39	44	-11	1
11	142	0.8	0.5	47	15	47	18	2
11	143	0.8	0.6	-11	-46	45	7	2
11	144	0.9	0.3	16	-45	10	4	1
11	145	0.5	0.6	0	-31	14	-8	2
11	146	0.7	0.2	-7	-25	12	-31	2
11	147	0.6	0.2	14	-41	-29	-44	1
11	148	0.6	0.7	21	-8	35	18	2
11	149	0.4	0.3	2	-31	11	2	2
11	150	0.7	0.5	44	-43	-49	-50	1
11	151	0.4	0.8	3	0	-3	-12	2
11	152	0.4	0.4	31	11	-36	-37	1
11	153	0.5	0.6	11	-50	-20	-50	1
11	154	0.3	0.3	49	-15	49	-7	2
11	155	0.1	0.3	28	-46	25	-46	2
11	156	0.9	0.7	19	-6	41	-42	1
11	157	0.1	0.8	2	-25	24	-1	2
11	158	0.4	0.7	44	-40	7	-19	2
11	159	0.7	0.1	4	-4	47	38	2
11	160	0.4	0.8	10	-2	26	-47	2
11	161	0.2	0.5	23	-12	-12	-49	1
11	162	0.2	0.8	36	23	20	7	1
11	163	0.4	0.5	46	24	28	-44	1
11	164	0.3	0.6	29	-41	43	28	2
11	165	0.8	0.2	5	-47	43	21	2
11	166	0.5	0.4	13	-18	20	-33	1
11	167	0.7	0.5	37	-27	33	18	2
11	168	0.6	0.2	48	-44	17	14	2
11	169	0.5	0.5	15	11	47	18	2
11	170	0.1	0.5	35	-16	39	23	2
11	171	0.4	0.4	3	2	38	3	2
11	172	0.4	0.7	31	-13	7	-20	2
11	173	0.5	0.4	-10	-25	15	8	2
11	174	0.2	0.5	-22	-45	20	-21	2
11	175	0.9	0.1	25	-5	-11	-24	1
11	176	0.4	0.2	37	-30	5	-16	1
11	177	0.5	0.6	24	-37	37	-49	2
11	178	0.5	0.4	35	-15	-35	-49	1
11	179	0.6	0.7	43	-22	30	3	2
11	180	0.3	0.3	32	-32	48	-23	1
11	181	0.2	0.3	3	-1	-40	-43	1
11	182	0.7	0.6	28	8	0	-21	1
11	183	0.2	0.8	38	-36	0	-27	2
11	184	0.7	0.9	-17	-39	-2	-29	2
11	185	0.3	0.7	-22	-40	-17	-33	1
11	186	0.9	0.1	2	-14	-17	-28	1
11	187	0.4	0.5	-9	-33	-27	-35	2
11	188	0.4	0.1	33	-39	43	32	2
11	189	0.6	0.7	36	-48	-4	-25	1
11	190	0.3	0.7	37	27	13	-3	1
11	191	0.1	0.1	-1	-9	20	-31	1
11	192	0.4	0.4	-9	-42	-32	-45	2
11	193	0.7	0.1	2	-23	9	0	2
11	194	0.7	0.4	11	-2	-36	-45	1
11	195	0.1	0.3	-13	-23	44	-37	2
11	196	0.4	0.3	-40	-48	4	-45	2
11	197	0.7	0.5	19	-46	21	-43	1
11	198	0.8	0.6	14	8	22	-24	2
11	199	0.4	0.6	7	-1	41	-41	2
11	200	0.3	0.2	46	43	38	-39	1
11	201	0.4	0.9	-21	-40	49	-42	2
11	202	0.3	0.6	7	-44	40	20	2
11	203	0.1	0.3	50	-13	47	-30	1
11	204	0.1	0.4	-7	-15	23	-30	2
11	205	0.6	0.2	35	12	40	20	1
11	206	0.5	0.3	-1	-17	-11	-32	2
11	207	0.3	0.8	46	32	27	-1	2
11	208	0.7	0.6	25	-36	-2	-16	1
11	209	0.4	0.4	8	-20	40	37	2
11	210	0.4	0.7	6	-14	-1	-40	2
11	211	0.8	0.7	35	-45	37	-20	1
11	212	0.5	0.9	-14	-23	-6	-19	2
11	213	0.1	0.2	38	30	47	-25	1
11	214	0.5	0.9	12	-10	25	-15	2
11	215	0.8	0.3	-19	-24	31	9	2
11	216	0.6	0.4	39	-8	-36	-44	1
11	217	0.6	0.4	15	-33	23	21	2
11	218	0.2	0.6	33	-1	-19	-30	2
11	219	0.1	0.8	28	-9	2	-40	2
11	220	0.3	0.9	37	-9	22	-34	1
11	221	0.7	0.2	-2	-28	-4	-7	2
11	222	0.4	0.6	43	-8	-31	-42	1
11	223	0.1	0.6	42	-15	21	20	2
11	224	0.3	0.4	46	38	44	21	2
11	225	0.2	0.2	19	-6	29	-19	1
11	226	0.2	0.6	20	-29	38	35	1
11	227	0.3	0.3	-2	-16	41	36	2
11	228	0.7	0.3	33	-5	-7	-41	1
11	229	0.6	0.4	34	11	40	-12	1
11	230	0.6	0.4	-32	-35	45	-36	2
11	231	0.1	0.5	-9	-40	-29	-47	2
11	232	0.2	0.3	-37	-39	-26	-40	1
11	233	0.3	0.3	37	-15	6	-27	1
11	234	0.5	0.8	49	46	-6	-17	1
11	235	0.7	0.6	26	-48	26	2	2
11	236	0.7	0.2	11	10	25	-48	1
11	237	0.1	0.2	4	-43	-6	-28	1
11	238	0.6	0.8	-9	-41	5	-36	2
11	239	0.4	0.5	28	-27	27	-39	1
11	240	0.3	0.2	-16	-24	-31	-41	1
11	241	0.3	0.1	30	21	21	-4	1
11	242	0.8	0.6	16	-15	17	11	2
11	243	0.8	0.4	-3	-40	26	21	2
11	244	0.1	0.7	8	-18	36	35	2
11	245	0.4	0.2	22	-13	50	-13	1
11	246	0.4	0.6	40	-36	39	-40	2
11	247	0.8	0.5	-4	-30	-1	-32	2
11	248	0.2	0.5	39	-19	-9	-25	1
11	249	0.7	0.7	3	-46	40	9	2
11	250	0.3	0.2	-36	-44	34	18	2
11	251	0.4	0.2	-37	-41	31	2	2
11	252	0.3	0.2	-37	-41	37	-37	2
11	253	0.3	0.6	15	-33	31	30	2
11	254	0.4	0.5	-19	-26	-28	-34	1
11	255	0.2	0.9	33	-3	23	-41	2
11	256	0.7	0.2	30	20	24	9	1
11	257	0.4	0.6	0	-49	18	13	2
11	258	0.7	0.3	45	-46	49	-9	1
11	259	0.8	0.3	-9	-46	18	-37	2
11	260	0.9	0.7	24	-23	20	-27	1
11	261	0.2	0.2	39	0	21	9	2
11	262	0.6	0.2	19	-45	45	10	2
11	263	0.7	0.2	15	11	9	-8	1
11	264	0.2	0.7	27	-15	19	-5	2
11	265	0.6	0.5	18	-13	35	27	2
11	266	0.2	0.2	35	-22	31	-45	1
11	267	0.4	0.1	47	-1	18	-27	1
11	268	0.7	0.3	3	-32	-23	-38	1
11	269	0.7	0.2	8	-35	-25	-35	1
11	270	0.3	0.8	33	29	5	-6	1
11	271	0.2	0.8	-25	-32	24	2	2
11	272	0.9	0.1	33	-4	25	21	1
11	273	0.8	0.8	-7	-20	25	14	2
11	274	0.4	0.5	-17	-26	28	26	2
11	275	0.1	0.4	-1	-25	-6	-33	1
11	276	0.5	0.5	34	-21	35	12	2
11	277	0.3	0.1	35	25	6	-14	1
11	278	0.8	0.3	31	-19	41	-7	2
11	279	0.8	0.4	-38	-40	22	-11	2
11	280	0.3	0.1	14	-5	-28	-49	1
11	281	0.3	0.1	31	30	-16	-45	1
11	282	0.5	0.2	38	-46	-23	-48	1
11	283	0.7	0.6	45	-20	-8	-18	1
11	284	0.7	0.3	49	25	-2	-33	1
11	285	0.9	0.4	35	32	6	-25	1
11	286	0.9	0.1	-1	-13	40	-6	2
11	287	0.3	0.1	-7	-16	-18	-43	1
11	288	0.6	0.6	-10	-49	34	9	2
11	289	0.6	0.2	0	-41	-3	-49	1
11	290	0.3	0.3	-11	-45	-29	-47	1
11	291	0.1	0.3	-19	-35	9	3	2
11	292	0.4	0.1	-23	-30	26	-38	2
11	293	0.1	0.4	6	-6	28	-27	2
11	294	0.8	0.3	-14	-36	39	9	2
11	295	0.8	0.2	5	-23	45	-44	1
11	296	0.6	0.2	36	-9	-15	-20	1
11	297	0.9	0.2	1	-15	-4	-38	1
11	298	0.1	0.6	19	4	39	-3	2
11	299	0.7	0.6	36	28	46	-43	1
11	300	0.4	0.1	19	-3	12	-33	1
12	1	0.8	0.1	49	41	-1	-43	1
12	2	0.5	0.1	32	-3	47	-25	1
12	3	0.9	0.3	21	-26	33	21	2
12	4	0.8	0.2	37	12	-20	-47	1
12	5	0.4	0.4	47	-1	45	41	2
12	6	0.7	0.9	0	-4	4	-42	1
12	7	0.5	0.5	36	21	-26	-31	1
12	8	0.4	0.9	23	-2	46	-14	2
12	9	0.3	0.1	11	-14	26	24	2
12	10	0.9	0.4	46	14	48	27	1
12	11	0.6	0.6	28	27	0	-50	1
12	12	0.7	0.8	46	-20	44	-33	2
12	13	0.9	0.5	44	-3	28	-3	1
12	14	0.9	0.7	-34	-43	-11	-16	2
12	15	0.4	0.7	49	-30	1	-15	1
12	16	0.5	0.7	11	7	31	-46	2
12	17	0.5	0.2	21	9	-14	-24	1
12	18	0.4	0.6	14	-17	46	-26	2
12	19	0.7	0.3	-5	-40	18	3	2
12	20	0.4	0.8	27	-1	50	46	2
12	21	0.5	0.3	23	-4	46	-18	1
12	22	0.1	0.1	25	-26	-9	-46	1
12	23	0.8	0.4	23	-45	37	13	2
12	24	0.2	0.5	37	12	46	-44	1
12	25	0.5	0.9	2	-2	45	31	2
12	26	0.5	0.4	43	-46	10	-21	1
12	27	0.9	0.1	27	-4	39	-36	1
12	28	0.5	0.2	32	-44	-26	-29	1
12	29	0.1	0.6	42	-48	27	-17	2
12	30	0.5	0.7	36	-28	18	13	2
12	31	0.3	0.8	32	-50	48	-10	2
12	32	0.4	0.4	50	5	32	27	2
12	33	0.6	0.4	-31	-47	12	-24	2
12	34	0.2	0.9	38	7	8	0	1
12	35	0.9	0.3	35	28	50	0	1
12	36	0.3	0.4	15	2	31	-20	1
12	37	0.8	0.5	-30	-50	23	7	2
12	38	0.8	0.1	38	-19	48	39	2
12	39	0.3	0.5	45	17	-2	-19	1
12	40	0.1	0.3	11	-5	-26	-29	1
12	41	0.8	0.7	25	-13	45	0	2
12	42	0.7	0.8	29	-48	20	-26	2
12	43	0.7	0.8	8	-24	6	-30	1
12	44	0.1	0.9	-17	-25	-11	-45	2
12	45	0.7	0.5	45	-8	-18	-50	1
12	46	0.3	0.8	24	-1	45	-48	2
12	47	0.6	0.1	32	28	-13	-37	1
12	48	0.6	0.4	-41	-49	-22	-44	2
12	49	0.7	0.3	12	-15	36	23	2
12	50	0.4	0.1	-29	-44	50	-39	2
12	51	0.9	0.2	48	-8	-17	-47	1
12	52	0.4	0.1	41	5	36	-16	1
12	53	0.3	0.1	28	-28	4	-3	2
12	54	0.4	0.1	28	12	24	-36	1
12	55	0.4	0.7	26	-18	15	10	2
12	56	0.1	0.3	44	-17	33	-7	2
12	57	0.2	0.6	-26	-49	20	-40	2
12	58	0.6	0.1	21	-28	21	-6	1
12	59	0.2	0.7	41	8	-8	-46	1
12	60	0.2	0.7	48	-22	17	-10	2
12	61	0.9	0.2	42	30	29	11	1
12	62	0.3	0.3	-11	-28	36	-37	2
12	63	0.8	0.9	-4	-39	20	7	2
12	64	0.6	0.5	10	-22	15	-50	1
12	65	0.5	0.2	49	-38	27	-16	1
12	66	0.3	0.3	-30	-48	27	-1	2
12	67	0.7	0.1	-1	-49	30	14	2
12	68	0.8	0.9	-22	-37	-42	-46	1
12	69	0.9	0.4	12	-45	48	-42	1
12	70	0.2	0.2	39	-10	0	-24	1
12	71	0.4	0.5	12	-45	0	-4	2
12	72	0.6	0.2	-16	-31	41	-4	2
12	73	0.1	0.7	2	-12	-13	-41	1
12	74	0.1	0.9	10	-33	-11	-13	2
12	75	0.2	0.4	1	-8	-5	-31	1
12	76	0.5	0.3	32	-10	48	-38	1
12	77	0.4	0.5	13	-36	36	-22	2
12	78	0.2	0.9	41	16	49	43	2
12	79	0.3	0.9	-24	-50	8	-28	2
12	80	0.5	0.2	50	14	47	42	2
12	81	0.2	0.8	-9	-17	-43	-45	1
12	82	0.5	0.6	41	11	37	-10	1
12	83	0.6	0.6	15	-9	37	-27	2
12	84	0.2	0.4	-37	-45	36	-33	2
12	85	0.2	0.1	45	-4	21	-6	1
12	86	0.2	0.9	22	-33	35	31	2
12	87	0.8	0.2	36	-10	-7	-20	1
12	88	0.6	0.5	13	-22	40	23	2
12	89	0.8	0.8	-9	-30	47	-38	2
12	90	0.1	0.2	30	-15	35	-42	1
12	91	0.6	0.9	9	-15	-13	-17	1
12	92	0.9	0.4	22	-27	3	-29	1
12	93	0.9	0.6	17	-12	24	-21	1
12	94	0.6	0.8	41	5	15	1	1
12	95	0.6	0.1	35	-37	11	-42	1
12	96	0.1	0.3	45	-2	37	-46	1
12	97	0.7	0.3	9	6	33	17	2
12	98	0.4	0.9	32	-50	6	-23	2
12	99	0.8	0.7	1	-30	4	-45	1
12	100	0.7	0.9	-18	-24	-23	-30	1
12	101	0.7	0.2	-35	-40	13	5	2
12	102	0.8	0.4	34	-24	29	5	1
12	103	0.5	0.3	32	-4	24	-44	1
12	104	0.6	0.1	-21	-30	-4	-9	2
12	105	0.7	0.9	13	-15	11	-28	2
12	106	0.3	0.8	-8	-38	-14	-28	2
12	107	0.2	0.3	-37	-43	-17	-18	2
12	108	0.7	0.5	29	-5	-24	-32	1
12	109	0.3	0.3	-35	-37	2	-9	2
12	110	0.5	0.8	42	11	-9	-44	1
12	111	0.5	0.4	42	-20	-1	-11	1
12	112	0.1	0.6	17	-5	-17	-40	1
12	113	0.8	0.2	26	0	9	-21	1
12	114	0.2	0.8	-20	-34	47	-24	2
12	115	0.4	0.9	-10	-23	22	-36	2
12	116	0.3	0.7	20	-8	3	-12	1
12	117	0.4	0.8	0	-5	29	-15	2
12	118	0.2	0.4	21	13	-10	-24	1
12	119	0.3	0.6	4	-16	37	-47	2
12	120	0.4	0.4	43	4	22	-35	1
12	121	0.1	0.7	48	-12	21	-3	2
12	122	0.5	0.4	4	-22	-24	-28	1
12	123	0.8	0.9	44	-49	46	14	2
12	124	0.4	0.2	-1	-10	36	-17	2
12	125	0.2	0.6	-28	-32	27	-2	2
12	126	0.1	0.4	26	5	-13	-33	1
12	127	0.5	0.2	2	-23	0	-5	2
12	128	0.2	0.9	38	5	-2	-6	1
12	129	0.9	0.5	38	-43	37	18	1
12	130	0.6	0.3	17	-19	-35	-47	1
12	131	0.7	0.1	6	-17	40	0	2
12	132	0.2	0.1	-7	-38	35	20	2
12	133	0.4	0.4	30	9	-8	-48	1
12	134	0.6	0.5	24	-20	16	-32	1
12	135	0.4	0.2	-7	-11	12	-19	1
12	136	0.3	0.6	-18	-48	-17	-45	2
12	137	0.2	0.5	-6	-37	13	-47	2
